[[0.6210874209782661, 0.19793661945726138, 0.519225902943549, 0.30547549022368226, 0.6172386692712505, 0.8667850755639287, 0.10229804187609803, 0.7342919530025357, 0.7106892235355993, 0.960104941462816, 0.8692800310863469, 172.31398012646807, 22.568819948097183, -13.170767037031322, -112.03388553695378, -10.66569085701716, 66.13255241003849, 80.32030936008593, 92.62758530215042, 0.7505488941497466, 0.5507147854654459, 11.056980925077834, 145.9403139342232, 22.72517591042759, -31.103894103990527, -102.80413012012619, -63.93787183924327, -7.011884573008241, -26.569501960173017, 0.8017759239233636, 0.5252890329689605, 31.54691363820332, 21.412654123326405, 123.19714697925313, -2.6855591275975503, -78.67874614902229, -4.3523783402261, 19.220139557451986, 175.9503433895773, 0.5204376571247844, 0.11135726186944717, -139.5511304780287, 84.14380127447085, -115.04820679420375, -394.34561391199765, 88.25796035289693, -20.649562449377214, 57.03821460184961, -132.97589180455768, 0.028237213121750426, 0.5909479027256378, 110.8422435733587, 8.551284079046189, 52.46678788824298, -111.82305562201327, 175.20263108018284, 239.89906831044846, -153.64575673458805, 238.830464759358, 0.3607100929439373, 0.6082398023227579, -42.4052500984114, 5.594153799780634, 33.77554603170428, -231.51587042154853, 9.993873252737455, 42.97715215461208, 7.97786871556104, -221.94065222207055, 0.6881246920807677, 0.4777980721628021, 55.90776655648861, 41.536456993496955, -9.72664144485315, 62.51209583626798, -29.485135046453017, 58.07890146525748, 146.83061310098603, 49.74815801283044, 0.25579471830730793, 0.4783566534038267, 281.1200340174486, -133.02669804729115, 239.92782225694745, 5.503921612351392, 113.46812618316406, 95.10053358617725, 224.34691345585006, 22.014725420750317, 0.13783196773372408, 0.7961606641509563, 0.4144383160210203, 0.7728383857958926, 0.4592337290711047, 0.4358219958880991, 0.4469851677016855, 0.85732739113238, 0.18068593635008323, 0.49886947366125756, 0.7222810359069606], [0.19383956857708817, 0.09004103343605463, 0.44994130359053575, 0.717779569893962, 0.11469886352648695, 0.9099326986993272, 0.7374911826906706, 0.42338646378339007, 0.6965312428595575, 0.005194862284792046, 0.3144909598232223, 172.12596679526928, 28.01260445690813, -16.501114344713883, -107.43607318656899, -9.49250581685002, 64.32305722427019, 85.63857078596268, 90.47687560384509, 0.16102451822608055, 0.4134579949835563, 13.695583092670743, 162.32552498141646, 21.97568570744333, -31.497905055057373, -99.04409267445834, -75.26279279903625, -2.2861996082427285, -32.7104422867095, 0.02919174818345438, 0.9813647361981793, 32.822933211078, 38.56709106119789, 128.56528798626155, 1.3394992622389934, -73.30689970447169, -12.305306384734168, 15.08450264375554, 169.63765268719143, 0.34026136667896656, 0.3819954924720679, -142.80113253588988, 76.87274787540095, -119.35584478261421, -404.1764404140877, 82.26379703660929, -30.31244276597319, 56.299044587249064, -133.80634018381483, 0.45531869431411853, 0.6294447953310801, 114.35227900737374, 1.0899200116138077, 65.666295974345, -104.26957433225878, 192.61439527011842, 236.23361467313546, -143.4152228205074, 232.55118303115054, 0.15251877059237828, 0.9946552785587737, -38.053261720581304, 7.511756274783949, 17.472579089131372, -225.75376124816495, 3.0595247873309264, 54.70223012285039, -2.046830087516325, -218.92343796080684, 0.4882234457807304, 0.9638826340884092, 67.21019232451162, 48.38457644555815, 1.329870869344696, 53.11973091546972, -16.806699745913217, 72.34718785091212, 152.59813416633918, 51.449695177060576, 0.8274210886936556, 0.24400841258362038, 269.14900787400103, -139.87611444731849, 238.1006870430404, 9.51765349301947, 103.57361388181216, 90.90009582120217, 216.0024035587458, 9.816424575725053, 0.8695886621241236, 0.815436079374643, 0.8320207816494497, 0.948152963324905, 0.30126539483625403, 0.7311249972397456, 0.7325721867703431, 0.8126220918851953, 0.9468813920947352, 0.157662976104037, 0.3397794879918985], [0.5064327360073634, 0.0754359579604682, 0.23415849262723953, 0.7470347502567596, 0.3749104072724203, 0.8381866596639505, 0.0029005013763857557, 0.431425873089221, 0.5060298001188331, 0.23706502546286556, 0.697710864166983, 171.84662877100428, 26.448628167276265, -12.847260815218187, -110.69189446028598, -9.871566474696587, 66.67022841769453, 81.67770732670591, 91.28300794542704, 0.11455442327734311, 0.05098388333799342, 11.43764464982212, 152.54008686885126, 20.964287394978413, -30.840342319271, -102.10048397244553, -70.10513144373033, -4.619525683129406, -27.838214139809807, 0.0448152840928967, 0.3532484681717377, 30.825764064035408, 29.20457804913647, 123.40378109562323, -1.8065107359074697, -76.03485502499274, -10.086674490234795, 20.416517040373424, 173.60757336925693, 0.440507546981876, 0.041886626968042684, -141.09866407870152, 84.43190633415256, -115.48808873778852, -397.55794138292384, 87.10362422006887, -20.663834394573357, 57.084665537930675, -132.98620363203747, 0.8661460644235293, 0.8613021379488706, 109.93612128866992, 7.227859724592016, 56.06537379803933, -107.34679282266265, 183.11000567312453, 234.03838303494032, -150.00344794260013, 235.81059523754618, 0.30487061324800446, 0.7532167570072745, -42.335422120598366, 7.144628138106651, 30.78933143302434, -230.85477539203998, 7.888731972338771, 44.907422379280085, 5.520057008882898, -220.6252062004182, 0.8517390032761563, 0.607729335638783, 57.90909918759738, 44.67662012153195, -8.085497343620787, 58.71989920639295, -26.44348913451836, 62.48718005159479, 147.46175313762592, 50.88779165230427, 0.1184993563235125, 0.9518363223221732, 277.04699717111316, -134.50461033275238, 238.4731932734162, 7.389811514501792, 110.89577904349684, 93.82623705997123, 220.93099707079986, 19.456273269095778, 0.6668288963548459, 0.9906480257197341, 0.5847923645569669, 0.926487756976294, 0.560549738952651, 0.5426360366852219, 0.04374094599286782, 0.6348589759193933, 0.2402036147722577, 0.2503965544059631, 0.7095360969054171], [0.002492716947055107, 0.6912631540694105, 0.287347838494335, 0.39339291585597147, 0.5348345892636547, 0.5461068577050505, 0.6774562789719611, 0.09637598302629602, 0.6416390569212271, 0.1545880097209701, 0.8767578964514647, 171.13464375083214, 25.46287421125442, -19.188887710490704, -107.1456967460597, -10.161865448460873, 63.56132226232883, 84.63654911003152, 90.5959569744385, 0.864102212350707, 0.9737101291167868, 13.796301502934497, 159.823888598071, 18.969391300655737, -31.95082586003406, -99.46025377991052, -75.30518713321365, 0.13288230475384208, -32.15999746953223, 0.45416898165235975, 0.6436023830862685, 31.817412417548297, 37.61277785058741, 128.76515395111474, 0.9518948069746308, -72.15782252815, -12.388207697628335, 15.737683011455173, 169.26532509791556, 0.08760549540694351, 0.7452363489612951, -142.14260825072503, 77.78281449918069, -116.67608564668625, -400.97908815542036, 81.92486568229555, -28.54303771717846, 56.08801670595859, -133.28036248377921, 0.5351885290659374, 0.5149409875009568, 113.5490980475442, 1.7700067793484306, 65.86161003533788, -105.16058736442591, 190.57182900126972, 231.99709425087022, -142.90538657000715, 233.0406522847668, 0.6834635041600174, 0.8442711749655781, -37.55217349961496, 7.332263214995049, 17.235965503815002, -224.60656304639411, 1.5766159980691743, 54.675846086601524, -2.4259265412596958, -218.18603749768772, 0.7366324782870095, 0.07913070692211488, 67.34857457270608, 46.98315891652134, 0.11758262199647646, 51.3808596118719, -17.205852356133644, 73.55458492799254, 150.60690724761028, 50.66494940087928, 0.9906110765678753, 0.9779494371111955, 268.6706529369953, -139.38851520471272, 239.0111829173723, 10.353887892840596, 102.89902766030612, 91.28726856535374, 215.08058947886403, 8.9183185857902, 0.7502822925168416, 0.5016299638327401, 0.9162591060623142, 0.6336022841602185, 0.9919425054604504, 0.594675606801576, 0.577010234978459, 0.9562475380043988, 0.788955959046477, 0.46808966580305644, 0.17749698056570473], [0.8115896486650902, 0.18375209541068993, 0.3789171736770378, 0.13213581431716515, 0.21305130797464134, 0.7205602126399018, 0.6745247106531411, 0.3066501257754769, 0.06030459126786403, 0.5531424572810342, 0.5832654797829623, 191.46585777751895, 20.49070487875695, 6.575742837796715, -91.53535130092861, 9.527713100820563, 88.01683308814137, 98.24990856250189, 112.79914466490533, 0.43851346742478525, 0.4922949005427547, 27.522033359429766, 133.86047690242194, -0.7598985058469976, -24.13823402034207, -93.00001491922313, -43.9696852862156, -26.785391257501637, -15.174121191697726, 0.17981913259505722, 0.675885015258516, 48.06380952712439, -19.958720633278478, 140.9975788409361, -26.71407222999349, -75.66425453063545, 21.739302422244414, 26.016938067736618, 186.90994438752523, 0.3763372913884969, 0.6774106509784779, -108.28254661241482, 75.01580960592808, -114.31274089630308, -358.6472590124724, 88.39828166451413, -26.247355561849773, 34.61639763147102, -121.80391176447401, 0.34519587387803585, 0.08853778589795813, 128.13129953805844, 17.341785380859953, 41.749034750241556, -101.48923072047369, 135.2201858366193, 231.39203772546583, -175.40742149896334, 249.5831081521445, 0.3778370257257252, 0.6364079283457628, -22.630144504892066, 6.019843659980354, 61.2400730552598, -207.8432135586615, 19.486687802981297, 35.57490239293733, -10.27822815790039, -210.63743562039338, 0.887785567808788, 0.7219863774505254, 64.71275609322626, 43.253958982491376, -9.381859014908416, 82.77341169435779, -9.803012070931405, 73.1484417650831, 121.77574918339603, 55.36354837762532, 0.00856483908013761, 0.07690777787533576, 306.13083160226466, -121.96355000623389, 260.38546482915683, 5.5095545056372135, 96.38596287183381, 90.25186108904822, 218.33523417720858, 5.849975998311655, 0.14809137159912655, 0.11845773413380223, 0.7310267737938625, 0.9632717632823944, 0.4417255403423078, 0.2615743858773837, 0.25102518503759674, 0.8106536488039147, 0.07703224369162409, 0.4202309453940962, 0.2720483264798196], [0.4940209944453918, 0.2397074809930808, 0.6280336756281585, 0.4114244695099054, 0.6532956938207521, 0.18256978753455833, 0.737294550070665, 0.3579905551516417, 0.6983804832184668, 0.3139909966913992, 0.309868909933835, 183.24464566155854, 7.773580450527546, -1.9738825914302822, -102.96706848661204, -1.284036306755003, 77.76987300713616, 86.90537276968432, 103.81183070041543, 0.3267448323597799, 0.17795176604050233, 18.534808642070935, 122.61790673602448, 11.760877114673484, -37.84992184116997, -106.9106217093605, -60.31267907193962, -16.148093884709112, -30.72002053200406, 0.36642480521837084, 0.5593016422677773, 43.26074733936984, -9.75507415035296, 130.469942432678, -15.829978208808493, -88.34621412511824, 14.51902272445257, 12.299259201343608, 178.86947294615067, 0.985723293528254, 0.5949949920005645, -116.15352608859213, 87.56889278610608, -104.59979195066435, -379.2444872662953, 78.299083054183, -15.160475251178367, 47.36981779497223, -130.8249618975945, 0.6797741287148725, 0.3344181347957782, 123.95503379649, 5.53803988824552, 55.614212135736445, -109.63619978533094, 147.27972406442888, 247.635151969922, -167.63049291281652, 241.21049034372447, 0.02782176231233635, 0.5742101085842796, -33.107865762344204, -2.1424449456113126, 52.148892042512244, -220.834548349145, 5.286201448841674, 47.72943013608826, 1.8706503676326787, -224.61088984011795, 0.6934498460922834, 0.8260501819911603, 52.54816063910648, 33.14784913382306, -19.5886051438037, 69.60477504890365, -23.143352562517236, 61.41442329919338, 133.50798948237994, 41.87028042062675, 0.04286567008432507, 0.7172508489790527, 295.66742287770984, -135.61867916017297, 252.80190913592835, 3.4919115626828416, 106.0443423597197, 101.36253577082412, 234.43333696721385, 16.17121236758296, 0.05598277513932792, 0.20906638858362891, 0.01393699154788619, 0.4018065707660693, 0.3781623315396011, 0.6883686245777322, 0.4717278508201044, 0.12527091708491345, 0.01519484508327984, 0.1800726962590824, 0.026683834014907815], [0.9644179965496479, 0.8113212864249415, 0.7917843225266076, 0.1249655132654649, 0.4961582813635902, 0.8531525418863511, 0.3748049269156595, 0.4254006962754948, 0.27625079467508473, 0.7238476337417334, 0.937843901496082, 193.71600036746455, 20.66681235470813, 10.223148717976951, -88.3214111270342, 12.969575160513426, 92.08031417691744, 101.9500286944814, 117.0254407179372, 0.10954768635002665, 0.1793325392898747, 27.90518870623898, 131.96621870088228, -5.71325283406671, -23.440633101355658, -92.16391718449881, -42.27506208996853, -29.932790482909308, -13.539814084043988, 0.716920508723642, 0.8715131890176977, 49.38135685246936, -25.576678804586965, 143.43631502290353, -29.00170411460741, -77.71676120966883, 25.09609361051278, 26.659851876553557, 188.7630844933355, 0.8248231582566655, 0.22706811090836332, -104.39215978519081, 74.5319339787868, -110.59228098015754, -351.31461623906523, 87.67845724322703, -25.75674633291228, 31.358453166930595, -120.64467803313833, 0.9764549915546594, 0.3513899914042873, 130.91901564649385, 19.819259159821794, 40.41797481406377, -99.44402730877192, 127.90795869253432, 230.65690585750957, -179.6662773672082, 251.21760643683737, 0.5509456598289979, 0.7009220696728964, -19.593830638101945, 2.706636101944317, 66.79789277385586, -205.74131374434467, 19.720027234665086, 37.14943206197153, -12.35749393173273, -210.14539249219067, 0.0568709698983334, 0.7142692863498591, 64.55467365209621, 40.32675535279394, -12.563512977220396, 86.3796850344669, -7.466932304057283, 73.74176668832277, 118.30451637850405, 54.88752051406934, 0.4373731917510143, 0.0635461222717063, 311.4662011940739, -122.63072890060484, 263.2420238629415, 5.561853051471089, 93.8718089308356, 90.03296971401728, 219.02860579333822, 3.8506671591302344, 0.24275211394721996, 0.9205482799267607, 0.6011918129384005, 0.7197514947168694, 0.6080218314411439, 0.6891126648705952, 0.20596468033475468, 0.31800176450917594, 0.4175497899611448, 0.10483608644679587, 0.5913555484057984], [0.27795951868918534, 0.5412101650872648, 0.6624206725383734, 0.15002527905294605, 0.8539365388044591, 0.008136250360844421, 0.8073806944312205, 0.3765839408151045, 0.6358450457560695, 0.8615352785673601, 0.19946468754677293, 172.9668837681896, 29.284675584449662, -13.305163478691222, -109.28350631973404, -9.09869521253892, 66.73516506344937, 85.0960222953051, 90.1007847154379, 0.7321103221376233, 0.8597609824600894, 13.321205152064937, 160.10819057005742, 21.42479102366786, -30.919283442969057, -100.74578612283851, -75.12622004365743, -3.5209004146558978, -30.83832717223655, 0.33489832345036985, 0.7084346471911527, 32.909830828327486, 36.01011047991032, 126.49721171446986, 0.8809469202907976, -73.06610302421652, -12.315953136884325, 17.152545627199228, 170.92836687243687, 0.8977754190515164, 0.9376844285058933, -142.87202036562883, 80.87022036700942, -119.05275754314383, -403.31471680758756, 84.7696615958219, -25.64102127505451, 56.90970160148734, -133.47699466529377, 0.2328634144954792, 0.9140099715817811, 112.66747764201787, 3.02336013422557, 62.64365874244264, -104.14769772745916, 191.19629012898534, 234.58616049957627, -145.43637122478916, 233.26297543724826, 0.7891877614676057, 0.6908528322049811, -40.153692332697446, 9.108281825184283, 23.639101604095117, -229.1621188129574, 4.600925016984993, 50.196533169545184, 1.3255746094475773, -219.7034318910278, 0.3679115378505545, 0.013551486759651343, 63.38637842032568, 48.28262443622618, -2.339401937158584, 54.95410488443103, -20.597884857982613, 68.5139458686336, 151.36018282030312, 51.77585019974109, 0.8029802299569491, 0.20270984195082165, 271.9545153303399, -138.0715607160901, 237.92042921657352, 8.975876388853194, 106.85229728996096, 91.96894465208204, 218.00292071376353, 14.38303262064908, 0.6597748804744034, 0.29156177112675963, 0.7940015053849196, 0.8064261861725992, 0.9783219562524254, 0.3055422509430691, 0.35229452012281304, 0.7921514746526156, 0.6290030916431617, 0.9290028714132713, 0.7630966416585008], [0.6615421436084771, 0.9358658584989105, 0.6744817257397987, 0.00531236632300347, 0.6369241425634369, 0.8782560834840315, 0.38831955496190496, 0.604381915740072, 0.1594291799980122, 0.3847200905451226, 0.5408939696767623, 182.28474064490442, 8.089291803685223, -3.8456385255817427, -104.65843328647524, -3.1043361095400166, 75.38311793929864, 85.62326883642875, 101.67222518521359, 0.283368672149123, 0.18078389349896673, 18.229902129932558, 124.49025496809179, 15.033137351454432, -38.49447421631919, -108.10428595958398, -64.12347120047689, -14.149909346797637, -32.38567665572847, 0.11362194358062239, 0.07601691180490866, 42.87430985517101, -4.738762658885225, 130.1021783872805, -12.81524095130517, -87.94874911832082, 10.510180208606737, 11.428779306246671, 176.85571433829284, 0.33621904547146797, 0.1835367621413967, -119.40850880216516, 88.39346267274577, -106.49153735754338, -385.3955518985731, 78.8204643858879, -16.04538155479935, 49.96816748363668, -132.24618580899804, 0.6428323551454329, 0.3026230976110452, 123.14245585703257, 3.8684857104251726, 56.8105749286247, -109.47245084218244, 154.56246587410558, 248.3457361267971, -164.58376651684793, 239.34544679987107, 0.7758995047168546, 0.7647664971327383, -34.53018240444415, -0.46097468235067107, 48.283805762312404, -224.04874291566486, 3.7180488393384445, 48.294230446075595, 3.387112860435683, -226.19888533982342, 0.09878424459927981, 0.9114061791643026, 53.05744187029272, 33.910013791347545, -18.33497552480403, 66.35771810710251, -24.703154602989354, 60.82882694805712, 136.2909373126121, 41.98374482706502, 0.9177883246656942, 0.3515371132663484, 292.19011481235543, -137.63388833779987, 250.42287845912114, 3.642325920081068, 107.0311262482941, 100.7717015174913, 234.3113637796409, 16.64640174475292, 0.5745321586913361, 0.5730222186848989, 0.7342908933829887, 0.0031670950229784056, 0.38823588326895553, 0.34442399839048066, 0.6618323841585464, 0.025519011660285473, 0.06797571075199982, 0.31285047615167705, 0.8634581308682356], [0.009764050303957994, 0.8835989397509985, 0.7110794980161746, 0.3446396609772886, 0.32266486061320565, 0.9258081903706, 0.06958429589755621, 0.7274004505554069, 0.7383389742038328, 0.7358534413880802, 0.8765855758068196, 175.66321691093313, 15.209422555839064, -10.651343482278484, -109.67285815863896, -8.805627065848773, 68.50661634961769, 81.00748569674731, 95.12901206464682, 0.1954003427548412, 0.7580258721020519, 13.651088145903907, 133.46114340523465, 20.389100880252446, -33.74066768834813, -104.28697828980309, -64.07993645472895, -8.965372025895093, -28.470394134313047, 0.2107346930059284, 0.2219438279376662, 35.53403614446628, 7.434348289480788, 125.07389522782364, -6.13405246604245, -81.80954827949724, 0.5647615420601662, 17.36883138671573, 176.57433619703892, 0.32149489764479866, 0.4724989200119183, -129.6102169951257, 85.59223004106924, -111.90327658805396, -391.6496136460655, 85.28948680066196, -18.829437172114496, 54.91897827179739, -132.19759643689048, 0.3816688533692483, 0.6438772405232591, 114.76688130742573, 6.989410719570513, 53.66964655618969, -111.41898088819426, 168.1225675046658, 241.68508010587684, -156.8926481686543, 238.84935608135524, 0.5941375665047918, 0.6506590245667282, -39.917817791768556, 4.211971164498314, 38.84813544878376, -229.3549697808769, 7.397651988460745, 44.462233761871296, 7.09516152512496, -223.02721668779333, 0.1599510257635146, 0.6027470430097189, 54.78960568043573, 38.936900609164624, -13.239690758955115, 62.797076495100576, -28.737766745091086, 58.73512592732596, 142.80315345280852, 47.03195475530922, 0.1638844445548019, 0.36802117528687994, 284.24968338920655, -134.6088776336217, 243.0557387299625, 4.283783861619236, 111.0128507152433, 96.64694278446896, 227.07815971829706, 20.36070598099304, 0.21771701346329797, 0.9495181948982505, 0.8411910858091391, 0.908773700538684, 0.6155024480192888, 0.6844498495665777, 0.7151883015471933, 0.23829471605522135, 0.7138820136034183, 0.04499304384718761, 0.2630960182509785], [0.05875602172144756, 0.6432981264857577, 0.42410100355320235, 0.4591539433162537, 0.21500525056663855, 0.6663281709291753, 0.42393801464940994, 0.5767077608881295, 0.4925948064559371, 0.931223474393086, 0.0410529954032578, 181.44443639846676, 8.601733045492432, -4.585745040371711, -104.65123679929793, -3.318911960928204, 74.55513060761969, 84.71293993151333, 100.33217487468863, 0.0068194062057926885, 0.016650282343564804, 18.361542194954275, 125.01731100026707, 15.766572968646713, -38.58044369777155, -107.82376099104656, -65.07027840575155, -13.50850201975965, -32.32203418752818, 0.6194567956346546, 0.89785308761377, 42.1031700252805, -3.0934891994927125, 129.20670994851312, -11.87989432881849, -87.4842863061096, 9.004176755320247, 12.502461131798158, 176.16428378387303, 0.062192308112587025, 0.6226940568437608, -119.57400799760174, 88.37693875618966, -106.52123292231256, -385.84803798765955, 79.51670039050192, -15.74824336777185, 50.44558345339195, -132.38930355087922, 0.8828189443490675, 0.14393158671852602, 121.79632516831965, 3.52092824485421, 56.65251220298404, -109.31239232227408, 155.82643080540964, 246.62578834423704, -163.1363282420374, 238.69874504513746, 0.10495691579083932, 0.07326351762999928, -34.84348369321022, -0.04669230959136298, 47.23388871857341, -224.77523298811366, 3.5818259828453756, 47.97030525292875, 4.168431609700614, -225.84244412383936, 0.5604321430947136, 0.8505822148762106, 52.97885972993295, 35.00210492408841, -18.562051422156763, 64.67479650521312, -25.058408723676795, 61.10904237069407, 136.7381760778746, 42.67353615329087, 0.7053475504790465, 0.43556665984280885, 290.3977851903658, -136.97373618263276, 248.78787212537313, 3.7928433400169075, 106.68533787509004, 100.41009322977911, 232.76929230671175, 16.725280917205666, 0.6618375808622788, 0.7797333374784927, 0.44847049929966765, 0.13466523699055122, 0.7672161145880301, 0.5890357659719421, 0.8440562653300785, 0.2725083960844207, 0.46506213281233444, 0.3838099438269882, 0.5083494192196709], [0.07970491873688079, 0.18561399122365663, 0.10580804936003652, 0.41404265965477005, 0.9981034049458302, 0.03483745803806648, 0.2399861633099457, 0.2933902455696229, 0.23243724482434014, 0.23677867624083415, 0.9920708955706208, 181.97418384311817, 8.286333633498598, -3.6583958278569257, -104.5619310327603, -2.3027517256695464, 75.94943354569018, 86.38698946542164, 102.09903703604179, 0.9929772375265092, 0.7937709309030125, 18.30043052905793, 124.55896431706718, 14.712810012205992, -38.00094042124782, -107.91683173589303, -63.65754882697088, -14.63371363614706, -32.1916448833475, 0.22611233760130478, 0.25393786131197416, 43.13117403942017, -5.394796300287095, 130.53201456946275, -13.235536848149602, -88.31770453171598, 10.834009613094038, 11.050921910774807, 177.45002502257182, 0.18491057703589964, 0.2653418223227668, -119.64205353278994, 88.40203840445893, -106.41519085143807, -385.1795404426392, 78.46933818141666, -16.410945671852453, 49.822055296576934, -132.34576893542226, 0.27686336522517474, 0.6094946168092558, 123.54743216449369, 4.733446284573098, 56.82310401388189, -109.25127597348249, 154.4606741554863, 248.7993788307864, -164.81891931734307, 240.01398875746543, 0.9471492411074006, 0.27693768552810394, -34.21193514798744, -0.9708595303107439, 48.55009340157961, -223.83387541103167, 4.065283221684678, 48.23302660761118, 2.9386424813719674, -226.11255447475804, 0.9643355404171544, 0.7172521012064793, 53.122393106051994, 33.618441979979046, -17.717254532205704, 67.43260351517912, -24.482518614333017, 60.678909031697536, 136.68363377542815, 41.860031915987726, 0.8223560369040457, 0.805943361354632, 292.7959077608744, -137.6398614706066, 251.0537610408818, 3.7900264499538565, 107.29223770407572, 100.61695467102402, 234.3138354015491, 16.536497472744355, 0.13059783353867982, 0.865707702211519, 0.3056205188386202, 0.22158807139191838, 0.8829895395004176, 0.4512106519002711, 0.45074463965910294, 0.5135373890851791, 0.4285765000063281, 0.07742785549654485, 0.3022754732023881], [0.2372913074507942, 0.510168228832234, 0.482604752915229, 0.7540938577970767, 0.21266264488994768, 0.701379481624837, 0.7825156818467333, 0.7032358609294571, 0.9176125677075662, 0.434993003020003, 0.061619339183982325, 172.348186121132, 28.918949877997193, -13.159811157937206, -109.97027147383841, -9.443079871952147, 67.32820027617282, 83.89859138261104, 90.3636401684212, 0.7745898768435934, 0.033498635794604104, 12.89348223970941, 158.08003644609357, 20.962363041302407, -30.779533399167473, -101.35288511875791, -74.2055568171936, -3.810661509400307, -29.85355144767122, 0.44740264710231614, 0.8256523243795065, 32.166541459038676, 33.85258684383639, 125.81181553188979, -0.37541713169697377, -73.32457869562477, -11.963313212188877, 18.300987716132326, 172.0319225265754, 0.5144705867442734, 0.46384455832527327, -142.97710722549704, 82.69018910500324, -117.69820383692952, -402.21540313209704, 85.69273561347056, -23.369942547518473, 57.255609875416575, -133.40111820916303, 0.8438089575363222, 0.1704501131628502, 111.73105385432167, 4.152164548040904, 60.52040464220181, -104.96029961353923, 189.50297205707952, 233.695738371867, -146.82531216687045, 234.06172222366393, 0.9863673785229479, 0.9831608053332134, -41.1305423181952, 8.889809990014472, 26.29097865355174, -229.97522887340983, 5.43852744724695, 48.03996308458546, 2.6316432599287416, -220.3968519952158, 0.8098612790525933, 0.8472714001731956, 61.850403072103965, 46.92293972572423, -4.299207467300727, 55.84991666847101, -22.58255648291033, 66.98818914765546, 150.2218640139788, 51.464580584905434, 0.5194703665475267, 0.9277359328557375, 273.40497356998173, -137.2145272833351, 238.4045255312551, 8.226437111887927, 108.14379287736537, 92.57046293081446, 219.02139044241835, 16.0111887176054, 0.6790626627851385, 0.32919549096614875, 0.9000784095509919, 0.7055768531163988, 0.6384427980480869, 0.26571924160347116, 0.714981047961685, 0.002035746534467364, 0.8423860529167593, 0.3483811310338949, 0.01477737071414853], [0.7244316574550658, 0.7022631398858317, 0.7777864267722298, 0.7758808011541714, 0.2316363032142471, 0.8261828143564223, 0.11214930268700496, 0.896666088041369, 0.16755531882187547, 0.673318286067372, 0.5718708688821034, 191.48179153013518, 19.171210801380358, 6.131852394985736, -92.72969779254856, 9.106058237108627, 87.94661069473479, 98.24094324600756, 112.3290105059784, 0.19122857329108733, 0.582952561218578, 27.457531557785515, 133.392661592822, 0.6314221512806222, -25.634046820925604, -94.88116639908435, -46.90748992290258, -26.020591435184244, -17.54499513232176, 0.4275362331470326, 0.4097231066673199, 49.21656654410874, -18.734342508740784, 141.04030516682167, -26.44160035813428, -77.02039108648208, 20.999606760705806, 23.559965322809663, 185.8124082673454, 0.15944020801412206, 0.8686799384958839, -109.48574845696204, 76.97189059298698, -114.33891912308684, -362.7265774029466, 86.29490443421068, -25.393068691840078, 36.03229995436215, -122.86732940938526, 0.2073480116238432, 0.41967586958635883, 128.97150808505546, 16.01849872563518, 44.31306657339788, -101.74799856855535, 138.49095889612798, 234.17802204540558, -174.95638485883325, 248.86518524805072, 0.03225215841442064, 0.6206211594947335, -23.339449560146797, 5.486386219883575, 60.09454613433337, -208.95021079873536, 17.608905818886445, 37.32872062387968, -10.055281336485082, -212.742106746667, 0.7914720351087754, 0.6731300664170281, 64.27596582482653, 42.39154594700741, -9.137137685698688, 82.03967638217134, -10.714820635325067, 72.71651745859491, 123.4017064957093, 53.24450218056952, 0.3782918290443439, 0.6565279453501337, 305.3872643713332, -123.967315425851, 260.70312950576067, 5.698640367115682, 97.29267484936761, 91.52789315306332, 220.91728877999944, 6.217657581265026, 0.49730242091425103, 0.7425095384905345, 0.850823729313249, 0.3565622169186219, 0.09415704008303372, 0.6721065746511588, 0.7785378240094234, 0.8387189681375934, 0.2407376086514893, 0.5524928358776426, 0.3056793511519159], [0.2450010149665771, 0.7267402490302384, 0.38216446908727997, 0.6985719848365592, 0.2026547594968996, 0.19617915254329066, 0.6172360104893757, 0.48213243561416697, 0.6828306268461033, 0.782754110842131, 0.5972376109808544, 182.86489166587626, 7.551734391047763, -2.9133520456102944, -103.69647758486825, -2.33692432351533, 76.37595885227941, 85.483628241395, 101.86085074001055, 0.9929736973109493, 0.9018520170754677, 18.627836108618432, 123.30584773512551, 14.181855272974703, -38.80072696329667, -107.94536557981759, -63.44410926189376, -14.865496135450645, -32.44053939323856, 0.4857682120169716, 0.9420075149960638, 43.02580848250725, -6.2072450017031064, 129.76956862668263, -13.464406234719279, -88.24730161491313, 11.77366026543505, 11.890140224931327, 177.23764325969967, 0.5599989234385573, 0.8167772942746084, -117.62445751100532, 88.12849985304537, -105.42848251422429, -383.15364828638303, 78.5457861127793, -15.308939885907403, 48.88184412459033, -131.92199549168245, 0.033130027042845844, 0.15355585942920325, 123.2662460441995, 3.6131452406623916, 56.86341096875895, -109.25744013611327, 151.98225744004824, 247.91349862173539, -165.19279712573794, 239.43514388967557, 0.9918049242139413, 0.5586395703767064, -33.650354754252746, -1.021895779810325, 49.487680017084806, -222.90322739394458, 3.6955963026716545, 48.42692552870464, 3.287963050124181, -225.31983854732943, 0.6146138402394848, 0.33735242616185024, 52.475914042606604, 34.044342338793, -19.363229070825394, 66.54718980338609, -23.980058442689575, 61.5292333287442, 134.99373604265222, 41.98567174366056, 0.033838593138562634, 0.008254578030382098, 292.48998042230437, -136.82130779483776, 250.88138617524478, 3.961082045602621, 105.99864244135226, 100.83236371702782, 234.2883938416056, 16.48019464951475, 0.948538896588295, 0.7596580450857445, 0.594002751990316, 0.5735675238200139, 0.6189594445685693, 0.8671447990336215, 0.9755219886453043, 0.64748949006925, 0.9171984637540733, 0.37983360045020664, 0.1256745189757732], [0.77350468343373, 0.6823336750254795, 0.3817566816782437, 0.8027743148074866, 0.32116340891088246, 0.8620033436928968, 0.6658188452870023, 0.41068076652984464, 0.9082502125216161, 0.6178281997871344, 0.37862273956131076, 183.45026839237158, 8.738667057892666, -1.4100597266926524, -101.77189246208698, -0.7125311815072434, 78.45453272391083, 87.02200542348763, 105.4824565092821, 0.24546055215349283, 0.059215166464449576, 18.58894092076209, 122.42270435849211, 9.523243371460973, -36.33812165629301, -105.24118236860825, -56.901984302171776, -16.649700908351512, -28.08051361211957, 0.32839854106088373, 0.3270306916091805, 43.08059488083087, -12.256850565051387, 130.67700260238777, -17.717372982593425, -87.7118154994411, 16.146683949203116, 14.40097611509805, 180.05086937773436, 0.49853975260481387, 0.394775304571765, -115.05102999669253, 86.19480285994058, -103.82122820944583, -374.0532032721127, 79.9834431285242, -15.301638484096609, 45.55409472882153, -130.08816478465312, 0.44537778259873295, 0.2007084485680497, 123.65274482122221, 7.385336382596611, 52.94224942648783, -110.02888810938556, 142.4591504221233, 244.8928027659929, -169.42985009996244, 242.37548562071802, 0.9970322980773794, 0.049578661643629895, -32.01764545623727, -2.771253663959634, 54.295803795637575, -219.00059112249627, 7.339092606055708, 45.567471328000806, 1.2241397363654145, -222.95196923252988, 0.164571447925145, 0.3297270855764467, 52.78367405821882, 33.35786571693838, -20.143131674562653, 71.30592791942993, -22.236217513502936, 61.90622432813779, 130.7801410447778, 42.98296293260194, 0.8952858607813455, 0.8998501531612495, 297.96843290059144, -133.21574070385262, 253.74406519157873, 3.5717172798205605, 105.21987454935937, 100.89753913947865, 232.8458935969664, 15.993245473059336, 0.9689383714609372, 0.2727540054220078, 0.18896422599849172, 0.33477283446163797, 0.15917472567944013, 0.7194784985021273, 0.5376832903870916, 0.4630984466478498, 0.045243417902691374, 0.2898098971056905, 0.9356839232298008], [0.7514200875911266, 0.9502435129718211, 0.35531212070310825, 0.8149323719484801, 0.42567340295566736, 0.6798271797312438, 0.6473523227377513, 0.11518082017520914, 0.579354075644333, 0.5132617069670551, 0.7855675399627122, 172.11904415032043, 27.355850933377237, -14.029261531432415, -109.92766083970345, -9.939474474403363, 66.68615458676473, 83.26690170643258, 90.49396068639035, 0.9296782955492767, 0.32318143512844855, 12.932329660736492, 156.02336555083957, 19.458119802525133, -31.018847256728773, -101.96491762833571, -73.45763423560211, -2.842004088927313, -29.243661278398744, 0.5094135878042331, 0.4737390924287387, 31.174374524028497, 32.56067536450414, 124.73604260336161, -1.0860964544106755, -73.37826122976551, -11.633404936393363, 19.52569418608818, 172.04780385464932, 0.7961200744369088, 0.9143685491209563, -142.28575005991942, 83.48743880757566, -116.27462577065167, -400.6377963115895, 86.36161252088225, -21.573248001031345, 56.98112705019495, -133.587086145749, 0.14792741343598403, 0.9356987876874683, 110.9504435881614, 4.954964104154942, 59.428980013747726, -105.88387635714192, 187.4538950702534, 231.77148687555677, -147.58780132907805, 235.0107053354382, 0.4210161864678852, 0.26587181426295614, -41.43621185091268, 8.410932109424428, 27.550928764172156, -230.06203532544927, 5.460910616852234, 47.429062643415435, 3.3235225929052277, -220.4500239939658, 0.059617290899981135, 0.5530634240229954, 60.75538347824533, 46.52257572179898, -5.939820930581138, 55.520182864777844, -23.724829005558238, 66.15787165852848, 148.53207023878497, 51.20096784970619, 0.7933303902859624, 0.02772380104965111, 274.5631221988509, -136.16103834323567, 238.6338491426237, 7.979902792510711, 109.23982030618893, 93.31195743424752, 219.44681713587525, 16.334877979842204, 0.7506127626192313, 0.27429424267664626, 0.3490794537650638, 0.14816705279095566, 0.41881835563752556, 0.6692658873519993, 0.07277467992984965, 0.5504734529836554, 0.8157039668938925, 0.8426142038194524, 0.6911061174800291], [0.17862448100768558, 0.9185530373070993, 0.8985818368914836, 0.5350262670381717, 0.266805576838971, 0.2093865015264188, 0.022940811736077538, 0.8343277566629411, 0.45082749071051964, 0.23302049767839583, 0.5106051292656197, 189.08565702610156, 19.018421712748392, 4.734603440706665, -93.63541420575139, 6.960268274723334, 85.5350729901392, 95.5858025674231, 113.1723248272528, 0.6852054009561565, 0.6003399753921953, 25.112596653776638, 131.10703056930163, 0.12283204312293172, -25.176228795093213, -94.18816332685819, -44.16043796188245, -25.404174478146533, -14.45210521991112, 0.5065548984087161, 0.2387862530003625, 46.44763416044297, -21.163978445230068, 138.33102691722567, -25.893908743286875, -77.97835818057484, 20.908857148509824, 25.461576188700764, 187.19117786359854, 0.7123746161462647, 0.6964575641036261, -110.3802393014351, 75.81192815432192, -111.55291705881253, -356.5953240121848, 89.09276878754956, -23.666344451759183, 36.33547197801409, -123.3120491151174, 0.397037397039373, 0.30603437549901213, 126.33723812448027, 18.568888130666014, 40.81010136417546, -104.17598864497738, 131.97502943809027, 231.43825398194608, -176.5189991549855, 249.67211426112104, 0.4298024183372696, 0.5356916176536806, -24.17319759762292, 2.755589018618547, 62.37632016247505, -208.89825058769745, 19.569613198422633, 35.43682454022647, -8.029730713034755, -212.42052118400184, 0.5108606192338065, 0.2991734164021512, 62.190577867524986, 40.10783354269388, -12.496282004855935, 83.61940726356036, -13.351023937380178, 69.8705705435553, 121.3946422532752, 52.987715361651446, 0.4911133158054415, 0.7028821785328813, 307.33990744436505, -121.49567357823035, 259.7167401142404, 4.167339689068756, 98.75133463793092, 91.76861689969586, 220.38970518706304, 8.761450043201698, 0.9661641418254082, 0.9010811864116566, 0.8271805366719945, 0.3443573569670586, 0.5545174974125919, 0.5820494327773879, 0.4070863385149087, 0.32414798771366327, 0.4002513258886927, 0.47921641412882154, 0.3292795586228281], [0.6753480558763315, 0.4494633620367795, 0.3108120844487332, 0.6346868674298485, 0.700187109275944, 0.11347336890784987, 0.7512964577709638, 0.828108172823015, 0.05452018238241485, 0.4789370030739103, 0.1566352760480899, 183.97662767794793, 10.10917489911676, -0.8712202797596668, -100.6719601613721, 0.763446310098581, 79.7337785949273, 89.23001330330831, 106.70309978412058, 0.7092682962284587, 0.029272158594417674, 19.83357332990518, 123.96161649215028, 7.937711979986554, -34.59023400939534, -103.9898164168559, -55.47706266300132, -17.421062354320522, -26.540737693416624, 0.2327775694846257, 0.046738703179082575, 43.80826170539434, -12.961503524813775, 132.19394045865556, -19.430223294114036, -86.49833001404475, 16.565862744572268, 15.316267645915076, 180.87246321931727, 0.47530881928950564, 0.15085313388846577, -115.2362539681281, 85.58775000723074, -105.36190877714151, -372.95929743342657, 80.28210921018324, -16.839395490690652, 44.59331048200862, -129.19864143872397, 0.5287788067515279, 0.1540852779181614, 124.3679183587128, 9.289027396727839, 51.74684756957915, -109.1259196788809, 142.53672880738984, 243.24124908191888, -170.0988559826493, 243.6171406089345, 0.3034786354890733, 0.36016144585920673, -30.872040591936496, -2.0514269400472713, 54.91826037739849, -217.7582199179222, 8.837119316356178, 44.74846214133555, -0.7635280965546334, -222.00051365357888, 0.6370467727912593, 0.11042114670050474, 54.573935094820904, 34.21068324612445, -18.067292646005043, 73.45753799138897, -20.980958884280312, 62.86900400733993, 130.20578610012615, 44.00798089503135, 0.31731885219242173, 0.2150519998892032, 299.35207038717596, -132.1107827468589, 254.78534003247935, 4.094218139785703, 104.64658062568299, 99.76291617662791, 231.568946650148, 14.599846279538317, 0.6134045058636126, 0.1656736570027616, 0.10671377490103406, 0.8210099874515436, 0.5943225481184137, 0.5010746699243447, 0.22724565801245233, 0.6152088013211743, 0.7250888872771709, 0.9084863009974014, 0.6393353167908574], [0.5515167454311418, 0.4016194674390565, 0.11222787634075604, 0.4506937530906069, 0.4454242350572959, 0.3446080609595389, 0.888098885538035, 0.8437592403471879, 0.501770491762427, 0.5586904036212613, 0.39337313803555585, 172.04365692699088, 25.304943567252455, -21.474963817653293, -105.6164349670116, -10.579220823770957, 60.32961041971859, 85.7596322002576, 91.76070512391635, 0.565615333481553, 0.039979769035021095, 14.08249005081847, 165.1652591907428, 24.573785732796587, -33.210549200163555, -97.90715136115517, -75.94379190130078, -1.2155293943768866, -35.710298767100376, 0.5093805063304278, 0.15877131782636356, 33.39519013235537, 42.42110707078295, 132.28644250345351, 1.0980624549442906, -76.79926340415328, -12.412073325642915, 14.13461835936596, 168.9371418827344, 0.02644723885014566, 0.957499761001713, -142.08072655345933, 69.49455352769935, -120.09439279776292, -405.6192500486282, 79.73018020303705, -37.87455783594983, 57.44395634840612, -133.21438446491754, 0.29520745398138304, 0.605442680237764, 118.13548279478418, -2.118881825959203, 68.84624842220887, -105.02610258379532, 195.91435860128814, 242.00884442207388, -141.91241120766404, 232.75154991636273, 0.8090747429011431, 0.5498121059738069, -33.99463521348967, 3.9957486606740282, 8.658392230951236, -220.45282003568119, 2.9335604633887047, 61.53742987021868, -5.54542985578456, -217.1890184885399, 0.1987098676332667, 0.4001223232629447, 72.94511038412865, 47.29109158411671, 5.880078958561, 52.36681386809569, -11.473631478501568, 77.5385757975249, 154.52209687235774, 50.785776078773594, 0.7138261019270169, 0.14444726798931784, 266.4011103308573, -141.21000564539918, 240.3236948524535, 10.692374414640595, 99.29262728368211, 90.9588247776113, 214.00714520174802, 4.971391396118665, 0.22603979367334648, 0.21136048762279958, 0.3233768410774911, 0.9428612649529313, 0.2683890452832445, 0.9607123983362126, 0.29364034725332444, 0.482350015287641, 0.6129433456891664, 0.5830231255484877, 0.709844976745304], [0.5177448706214063, 0.5582974861301472, 0.9666776968343862, 0.2640227677517163, 0.28796974738536096, 0.6442500356248606, 0.5367188898586512, 0.3785740850459044, 0.7939458444047255, 0.8076291170444865, 0.8505624233684217, 188.64612300330487, 16.428957458271103, 3.7577952647590918, -94.68370320257138, 6.140710206495644, 84.49723564001631, 94.20401814665652, 111.7596030022696, 0.6725788994681319, 0.007210377944910085, 24.74353021136884, 129.19349890693164, 0.8806233163932036, -27.210624221866453, -96.55591760998718, -46.20891024889787, -23.205059615224773, -17.6697744631168, 0.03838589994558883, 0.38927345724000184, 46.08601217972669, -19.263636504329437, 136.78669587153394, -25.1639869682064, -79.67760618562869, 20.9062787646202, 24.119718234116554, 185.37247076478786, 0.07481840367243975, 0.5576393097266945, -110.45445666919959, 78.11271283913969, -109.93531717572885, -360.172119321353, 87.30182830362487, -21.952121242038825, 37.11775372782093, -124.31941800137535, 0.3722520733455208, 0.049856925834243615, 125.98963721288371, 15.924588829650405, 43.19793748861523, -105.15450438995951, 134.16476757058868, 233.27001477978337, -175.13188454861697, 248.38120203162197, 0.8695096314328773, 0.7105042980770251, -25.019248115963496, 2.4361365581681036, 60.60218073936832, -210.34921190558276, 16.92373540317204, 37.418862956986814, -6.703957311902214, -213.90134141565505, 0.8423302670595445, 0.5857150260426274, 60.63767698952612, 39.398492951432075, -13.455121576907494, 80.60405298416792, -14.59989191937862, 69.14260993345259, 122.16945996130725, 51.5392880348995, 0.43712193334393157, 0.2254727894705315, 305.70274260021364, -123.29684538165186, 259.17437501229784, 4.830031408220437, 99.66311404690494, 93.56497480573933, 222.53877757070813, 9.207972845279267, 0.2530203683097686, 0.5827364625102822, 0.13182058587717016, 0.5868623054918433, 0.7517680581763964, 0.11516702677208335, 0.47450606023698394, 0.4675448441566724, 0.40620119111167574, 0.7677473986060339, 0.33143056981567653], [0.44444088731854725, 0.48495575195131924, 0.20956485897400767, 0.09537289258174553, 0.2565745447330263, 0.005494944455535222, 0.8722195919792517, 0.37245962256925713, 0.10299473192455366, 0.1398765437618047, 0.19714122259491917, 171.9524534602095, 27.451161710520914, -14.859978490998078, -109.48194262104043, -9.858274279913164, 66.44724039567765, 83.47648062903001, 90.31455036868891, 0.42336187269332026, 0.812594698880877, 14.162752259218934, 157.2285230739494, 18.919337405603567, -31.19423699679851, -101.4518964793996, -74.74405265830718, -1.7049181736705232, -30.133392264175278, 0.11293623951149634, 0.8337752455916793, 31.808406723099672, 33.993069838276476, 125.60562846448131, 0.013875671333276555, -72.19898948543891, -11.92950294557019, 18.576230332163302, 170.9758505155948, 0.5618996881387168, 0.9765605191407315, -142.65193433991158, 82.63563565730864, -116.37982077409586, -401.01576473172275, 85.53176999519673, -22.6856309321983, 56.69359744142362, -133.46384230910618, 0.8098796773667416, 0.7006203485794736, 111.64457379783454, 3.679176863707701, 61.74764573700987, -105.27926502652215, 188.70402290979592, 231.05837868394588, -146.0901814411995, 234.57835116276243, 0.6047922533874409, 0.5321678011182194, -40.3478212115541, 8.987357202097064, 24.924987794382016, -229.34120811629103, 3.999830626447652, 49.09515128751641, 1.8766066944406914, -219.96877853411672, 0.46906032959566046, 0.43637899743979514, 62.44378720130025, 46.958956276057314, -4.519775180446477, 54.20418184724795, -22.151015314130017, 68.38491363376188, 149.26882304662143, 51.172370072109665, 0.9429980124620141, 0.42303361759624414, 272.81871767945995, -137.11857023707896, 238.78046679214745, 8.941387930774189, 107.65609472111046, 92.90272592803473, 218.0411505735796, 14.477011196992487, 0.38012309744474004, 0.5839696344687048, 0.13224722341754191, 0.1276648833385, 0.3738008078058689, 0.9550603850117165, 0.9088209586016941, 0.4806484138511459, 0.5375918697989714, 0.5278046748438613, 0.00766871359987864], [0.659763754640602, 0.4181506595256034, 0.649016158645026, 0.2856142340276242, 0.03224379277996048, 0.4603015123758275, 0.8529222138584908, 0.7884229520179973, 0.30533635144199733, 0.6558922329627719, 0.03821993196396101, 190.53663313022776, 18.859901078056783, 5.332078763677218, -93.50999620346632, 7.580965990642065, 86.50669856503458, 96.66173821243125, 112.3585384203099, 0.1398430412092989, 0.20589816542638417, 26.06237129944306, 132.14916267102902, 0.46425340769776985, -25.614808005018524, -94.57807630927847, -45.30358620757971, -25.8590291257423, -16.182019449014195, 0.7042209148248071, 0.5815162697900661, 47.51883820781404, -19.77906736893732, 139.32830838526317, -26.18998223707952, -77.3546180219287, 20.923868592426064, 24.894897949554533, 186.67869183269917, 0.09722520291429404, 0.37479131596477644, -109.30467891356103, 75.99692584747058, -113.09750043529219, -359.5669565019673, 87.80309755711028, -24.420049881169835, 36.18316907565537, -123.0125006723814, 0.8872440817506683, 0.12577852077781737, 127.21182178114817, 17.30315058964075, 42.4445476248391, -102.96994959330988, 135.32956013951485, 232.78408204918617, -175.67883882021988, 249.0266244938783, 0.658353162060703, 0.019218673190333657, -23.979337144694536, 4.238211729822572, 61.32052908999223, -208.81994691631994, 18.58171660562993, 35.99417548499822, -9.020196799828517, -212.5379089212919, 0.6036415105992746, 0.6238115458005041, 63.31796649986462, 41.33719316658317, -10.842389649786888, 82.78880981507223, -12.290505717533183, 71.30934266535182, 122.10318954927092, 53.055363616032345, 0.5401763844564882, 0.7145148567125638, 306.1259380208507, -122.69573645761, 259.8163997059535, 4.631543227598359, 98.27010747944294, 91.54841079711547, 220.49745796791535, 7.603150251184756, 0.8816775131814616, 0.5237520809191524, 0.17062897682122524, 0.6702469338750486, 0.3619524291512488, 0.08724385767648779, 0.8261975771461074, 0.06494818536491975, 0.8760943776139744, 0.8495154894484872, 0.9264469463868747], [0.16043628697599954, 0.4510805200882315, 0.6316431572308484, 0.3951276741461486, 0.4982961587715897, 0.2462532896399856, 0.9168107595952331, 0.873528038170287, 0.24909215489684866, 0.07204713775182148, 0.21013691265100698, 190.28703206994905, 20.127255817153966, 5.441669781633702, -93.01494391557668, 8.636324394551993, 87.62705840002553, 97.92502665296598, 113.25340100494049, 0.08971458591827564, 0.7385047287940748, 26.58615140949164, 133.26578649230478, -0.26142225849640793, -24.308488435391318, -93.89014281487178, -44.52772065491585, -26.092241847695494, -15.501873447213612, 0.7002633060114635, 0.7823074667844415, 48.11745237296833, -19.993813513897106, 140.90649937944872, -27.098689346959524, -76.9493774756155, 21.37525857797223, 24.56594975348402, 187.22851758414342, 0.9453256349424627, 0.4953225900009324, -110.78636719523048, 76.28142652833027, -113.50660358408224, -360.25291780342553, 87.86996306603798, -25.538503873089223, 36.01387781996285, -122.8733917769714, 0.9454708337238261, 0.018645354804408543, 128.29493195569876, 18.055786812964953, 42.32148829250411, -102.740604942465, 136.02245350124997, 233.0005348836586, -176.04800012385044, 250.29323556486398, 0.738906603565953, 0.6958249882064724, -23.338136374921845, 4.421426196755182, 61.10925391368519, -208.88390673700297, 19.169441370492976, 36.016437231938085, -9.949917962898297, -212.42276707325092, 0.25394514794359047, 0.02807167988732262, 64.15172878723531, 41.543741503586354, -9.546525201032969, 83.57928293920132, -11.286658666866193, 71.67803563905919, 122.73449001742694, 53.576394680617724, 0.03814963081271827, 0.48457929177537684, 307.00287291868443, -122.75914093330958, 261.23087732248786, 4.919273618951324, 98.10795362940605, 91.26335528409655, 220.41375843053285, 6.806298787228836, 0.459585223649826, 0.4296503786643099, 0.6887288116383947, 0.5781476013015011, 0.38257978163778805, 0.8269766770270821, 0.6652342554051185, 0.0966611790644355, 0.8722926291422565, 0.40287848698719797, 0.8250765121967901], [0.9759996262123521, 0.9244557935743672, 0.9205259824187692, 0.6639402006824017, 0.8140450407197678, 0.19031652894328166, 0.41483316829359074, 0.1094645388095209, 0.4582852332083611, 0.9049014346688717, 0.12835741435588555, 182.4444300447773, 7.210875526172824, -2.6505494247268397, -103.6077079405659, -2.0669685800009234, 77.0228838762933, 86.57476530814549, 104.75607691134962, 0.5574740035495811, 0.32417433505180615, 17.500667535618444, 121.70215394364456, 11.268983665606388, -37.60786189564026, -106.95714660364682, -59.04237896255854, -15.676654244897316, -30.12312706471239, 0.12007752740126554, 0.6156820436818761, 42.96424552557027, -10.968056887000765, 129.99276181171186, -16.696562252436646, -89.1253673136654, 14.999519108103591, 12.01347225217526, 179.43304581682776, 0.8164753104719504, 0.23228627155025816, -117.36953041175836, 87.85631622310113, -103.49319470089716, -378.09870293981794, 78.60424119243979, -14.37433272896199, 47.68290361975139, -131.1103160072194, 0.8470356443490532, 0.8847295133787291, 123.74713752776404, 6.932754971811159, 54.640371840356586, -110.83113155585406, 145.66630839939037, 247.9443649860656, -168.87995064117666, 242.11849759105328, 0.1410497544486805, 0.4944047519694872, -33.499460641394016, -3.6286275785862574, 53.06901491826839, -220.8874586156872, 5.641313314105294, 47.00978946023296, 2.165606027498234, -225.41076455674832, 0.36601094403260426, 0.4816842241233664, 51.98473643717232, 31.672141809721705, -20.19944520667198, 70.75631489225553, -24.20098955076949, 60.3420994785134, 132.9285680059263, 41.18737775539902, 0.1539340181153308, 0.2787652523412648, 296.9878512598387, -135.04983225108845, 253.72101702633776, 3.2025189493982764, 107.2458932872809, 101.71686054788096, 235.70091640062358, 16.927979549143885, 0.4048579419732322, 0.680288530357919, 0.24448746884045325, 0.14103041908066216, 0.16997078787702458, 0.25043714082524116, 0.6175987567125025, 0.5832996928341281, 0.758572952225492, 0.588584635746552, 0.5086504037327149], [0.9939272908294362, 0.8438507932606949, 0.8931133032006137, 0.8598768182227341, 0.9500653008448634, 0.8783748350478674, 0.89525996104441, 0.7458958967901681, 0.08721699333787147, 0.04213449751409304, 0.5730138566692219, 172.46454043905922, 28.98340019637375, -13.344207843280094, -109.33116753536837, -9.224621814501559, 66.91597162344485, 84.48680917083162, 89.90454192534402, 0.1467054465916917, 0.9502887716385584, 13.561990757180409, 159.26657832382654, 20.685113899246858, -30.936993696319263, -101.17328818318869, -74.83803344892311, -3.0321485600631437, -30.534968813749302, 0.4664379712715636, 0.3011610180058423, 32.24797900462125, 35.22248271896759, 126.24564969386216, 0.1477160050668346, -72.99396789549643, -12.07909064442848, 17.688918551254975, 171.21213481261933, 0.48920647417105967, 0.647527881372648, -142.72911233916304, 81.79076010669594, -118.42219020664268, -402.75776419530183, 85.01735294276762, -24.52008564035451, 56.9245970439022, -133.37669217341346, 0.07008478226798909, 0.5825741430923463, 112.30326727753454, 3.293457660099757, 61.842617698329, -104.47628420229054, 190.557548010466, 233.83865758489816, -145.91769843050147, 233.59130164828449, 0.015201508517507789, 0.7706927106895978, -40.45747757495352, 9.208567753790268, 24.5944252398899, -229.3793748471618, 4.682715289446869, 49.385602913215905, 1.878332880377599, -219.98203965650632, 0.5032710657754094, 0.4964860483034479, 62.8668680514815, 48.002270404598846, -3.2056519112240545, 54.82199436370065, -21.17622740602649, 68.04018893872363, 150.77565318081395, 51.76238473900493, 0.06925054792421781, 0.8333523207056002, 272.3342430917058, -137.7362185052768, 237.84045775942198, 8.873344609867303, 107.25599200622804, 92.2129120247121, 218.36856596754006, 14.56820291700441, 0.4239040531453593, 0.3163996013720173, 0.03177337384008094, 0.6389873736057148, 0.8425176460361301, 0.29538053771777495, 0.3719600656876937, 0.1212518687811861, 0.02723977151747725, 0.6703616244518155, 0.18011611721616572], [0.4714930260104233, 0.06244078478001225, 0.8316454114791859, 0.08001033005660674, 0.5149276661370233, 0.7663535022068608, 0.2934343908521425, 0.15046313696732483, 0.9761610259356265, 0.5991785832301294, 0.7139409299842867, 183.20941282882978, 7.713072106189923, -2.1814640966791696, -102.58324609000051, -1.131203375113484, 78.20011462233316, 87.16044929990713, 105.19171627346792, 0.303726417511047, 0.4072584998218911, 18.015027013294144, 121.91075123100751, 9.912134162992462, -36.838852297915395, -106.25287994873648, -57.7991448499318, -15.70688761816772, -29.146250623713698, 0.5931868084548874, 0.22129932415231934, 42.49212446369449, -11.325008372960301, 130.27106797253754, -17.504009760570472, -88.28142919161935, 15.760733806834704, 13.212567695530598, 179.5369095194028, 0.5561863267030902, 0.06995099210288402, -116.21869259335963, 87.48448123456343, -103.57398847407195, -376.47627054664747, 79.10506754347601, -14.812286213789182, 46.373531847441996, -130.4307423816341, 0.39748631862710415, 0.3286815342417544, 123.73642919533515, 6.989177376962318, 53.983304206338325, -110.40593924354965, 144.10753935043022, 245.9747283978616, -168.96414691300612, 242.44402732830977, 0.7534108859243343, 0.1708238092622033, -32.50347537716584, -2.9759459932241947, 53.46999269920158, -219.99218275719608, 6.332847953418831, 46.7639368183992, 1.6525838470800271, -224.0981987549658, 0.37089763516480423, 0.8559172508049132, 52.397476371240245, 32.64524674998117, -20.08067866524384, 70.60799025652021, -23.01505991307828, 61.249160803837604, 131.89209626359596, 42.17747947934166, 0.3276849310677237, 0.38111128918835335, 297.66457518174474, -134.11689182309263, 253.87188096980245, 3.4739312583865742, 106.11154015475107, 101.35985519645901, 234.314843841253, 16.409701228347735, 0.014866301307204455, 0.3248561097380396, 0.11286177135668651, 0.6827900612330788, 0.27612217983569665, 0.028729629134370493, 0.7287090630126186, 0.8365870199319628, 0.2334728162996016, 0.6220203246711993, 0.915149789743063], [0.625977933953382, 0.09984535761784641, 0.5876184409825544, 0.5737249370419172, 0.28582703057335335, 0.639073560868951, 0.6105016339033338, 0.5024566949844007, 0.8474478019540426, 0.09861623671757047, 0.5655847279740702, 191.52788542783392, 20.927522978291464, 6.9008865843035, -91.24805473781626, 9.613471023088634, 88.11836364409635, 98.04296995523892, 113.24773472439401, 0.5031042710074954, 0.6886672097814837, 27.099213517171805, 133.43198238725566, -1.2147643574043812, -23.632702052595512, -92.31835519390994, -42.86688749599503, -27.383347369157228, -13.981907686658388, 0.5369702652867538, 0.43171291765850295, 48.17671820311434, -20.83936906766726, 140.71712403594677, -26.52918819896865, -75.73554471699835, 22.023978399277482, 26.82801255810643, 187.42209656165554, 0.05480434063141637, 0.0692567407481165, -107.84316880849516, 74.34636483169226, -113.4258204989356, -356.366055704765, 89.19379405289378, -26.21096243777659, 34.104509543729506, -121.37456289494742, 0.8721446624466436, 0.537907236267071, 127.65126554302685, 18.14720340005217, 40.532674577244734, -101.47908097580556, 133.1021671710181, 230.67978351611094, -176.04059425147656, 249.84307118555975, 0.8965957902871888, 0.0929323813746139, -22.404716056076914, 5.409276099744971, 62.26034692072098, -207.62467888503085, 20.173270950925215, 35.11135658302498, -10.075235921307808, -209.859432330198, 0.08914633664072125, 0.24973450990013413, 64.78479458087254, 42.83008922068129, -10.393726664916286, 83.52928120014322, -9.627111272007985, 73.09846106972098, 120.746311133852, 55.60635515557413, 0.1605269962083148, 0.4123512629532029, 306.8433475310726, -120.83241177125626, 260.2245352657541, 5.342864901322293, 96.14317569335385, 89.97542855376446, 217.9095507609715, 6.26948259791437, 0.2990974751770563, 0.6160117802758952, 0.13801074635626598, 0.6024834167623819, 0.7020483980620917, 0.6430173642609693, 0.2533345120468843, 0.5723069403991452, 0.7565018255383497, 0.5543679661750824, 0.669717138522649], [0.4954657492044018, 0.21064842707680898, 0.6003262122976599, 0.08812507729276609, 0.688090043461012, 0.5388694703113873, 0.3007253567577076, 0.16905031794896386, 0.11910205076295877, 0.622430671390477, 0.6653237321213514, 171.29692518329486, 26.819677572942414, -18.175478078125224, -107.63682817983563, -9.973408855387445, 64.02333131015583, 84.77400656027984, 91.13342311605436, 0.7308321403104772, 0.6255813285841004, 14.078173570539219, 160.38925395124454, 19.486236693832385, -31.404099911231814, -99.60973882826676, -75.40975868724985, -0.6414199764525087, -32.132476539122, 0.2691460227833865, 0.6374877625290558, 32.27438629203567, 37.53720803425347, 128.82666859198932, 1.2255630663792203, -72.27157053070346, -12.725576793612055, 15.525537571362692, 169.87307904724258, 0.2113673643050935, 0.0034683366484609124, -142.9437251858012, 78.5122020558239, -117.19788656289539, -401.8812940283305, 82.48704955137231, -28.446516517415425, 56.481541581433575, -133.5768911128706, 0.9402965852233794, 0.019769680536681156, 113.81784315826191, 2.011487985326233, 65.72669957605711, -104.86328084826998, 191.4738524620365, 233.19341350293675, -143.4482895843795, 233.34389958311232, 0.5745547798715278, 0.7093988413126228, -38.268880868842835, 7.422232255750238, 18.042478943540946, -225.84268780369968, 2.033181168404866, 53.79911162806474, -2.0381891524931297, -218.71815574740674, 0.17677223760004834, 0.3912353575180041, 66.80889143219484, 46.98484126149394, 0.11041047688282553, 52.428230793716864, -17.666028115551835, 72.67920226634426, 151.19485712510618, 50.46129504294473, 0.3876905523997345, 0.629297706440232, 269.4303056618967, -139.31563251594997, 238.8761997017949, 9.972734794396436, 103.95328207453124, 91.82437902447614, 215.6166995278196, 9.960088782431576, 0.14742871090646337, 0.28531755564878447, 0.16995008757799235, 0.6051525184190238, 0.89080985555277, 0.39388630529481794, 0.914996905306556, 0.23844786137030038, 0.4279662836442252, 0.48839259990536443, 0.07045907667428764], [0.3515596931532099, 0.5511371428839356, 0.7582766468660207, 0.2205957486350817, 0.301067263822155, 0.02276111570290129, 0.1614063196455664, 0.20725094449487358, 0.7586910491859012, 0.17459405606147305, 0.7001831902403854, 181.7210093025191, 7.633131901935572, -2.4161740276530654, -102.22125319559632, -1.9803153796735402, 76.54840495833058, 85.073301426037, 106.3974987919915, 0.014093418516305856, 0.20879382784029732, 16.804762256227384, 119.48884930491131, 8.36269988615237, -36.2331192456998, -105.14721378482066, -54.880318512717395, -15.487626182898019, -26.131046899324797, 0.6971160030091761, 0.658692659182231, 40.66684257589195, -14.540754193369363, 127.59155707396944, -18.06684314146927, -89.17136473269866, 16.33542563686183, 15.743102547818564, 180.6193057041079, 0.6873830647891774, 0.7117072347110449, -114.80400376074573, 85.94465822574952, -100.8288502442917, -368.28891797622424, 81.5214830012409, -13.020307704353025, 45.448568935350444, -130.17624078785877, 0.3407888557851959, 0.8954875777231086, 121.12153785879634, 9.840722183796125, 50.17283318868169, -111.79633378195655, 136.4829496885329, 242.11636876079925, -170.9686833685923, 242.82814075561203, 0.5017215349065669, 0.6958923833703439, -32.67678717164177, -5.675456276000264, 56.821366995127484, -218.4654000027632, 8.594171519387997, 44.3604694582651, 2.7883411748446014, -222.47459200783112, 0.9213456055876088, 0.15336435370414692, 51.116794704742915, 31.032178141205286, -23.110704448055436, 72.58348711788473, -24.651333057264452, 59.47391438851979, 128.50612286373592, 42.383807805803364, 0.44623993213417545, 0.8729222602142943, 299.77436882627205, -130.6775429683055, 253.12993128605757, 3.0987378641767, 106.51041609176501, 101.13040877545546, 232.8976922645469, 18.023915690779848, 0.8857452064613173, 0.1492092369902519, 0.8002979534461745, 0.7381105989201052, 0.8203750074724733, 0.4090887232689403, 0.5161232849577424, 0.7977463274859764, 0.3960663648455107, 0.752443438862837, 0.206617933777967], [0.5962896186881056, 0.9879325919762664, 0.6771524219657248, 0.9366417421578827, 0.9119558145040233, 0.17785058540333365, 0.005046634011142692, 0.5206894924269969, 0.3500510944779931, 0.5091255652009353, 0.3336501715007095, 182.3013847459455, 6.2536551284043, -2.900415516829169, -103.72141577568236, -2.5850342117795813, 76.41606265375796, 85.4398582562076, 104.22966257583526, 0.45619384517419814, 0.2581201712478929, 17.976774936838282, 120.73966219416292, 11.323042212268291, -38.24934988721894, -107.64341432074315, -59.4947674963576, -14.929823761240707, -30.60150142467697, 0.1077905675751818, 0.04519606363301265, 42.46778532887619, -10.607118639164645, 128.86844301719978, -15.998905742024636, -89.37893312569746, 15.418230833776608, 12.454494396635834, 178.83218913430804, 0.2145083562686867, 0.8935696499102614, -117.19236928438886, 88.28255047983151, -102.6445586002938, -378.1346657197577, 79.00398515389533, -13.531299381156739, 47.71267233047461, -131.55875575374424, 0.3485164539176241, 0.3747398971157433, 123.26309496653839, 5.998858785468739, 54.662492156213766, -111.51761015680427, 144.83545119407268, 247.37727152516993, -168.63697424774, 241.97077245586271, 0.7452464607702802, 0.7451618483544813, -33.6064947961223, -3.3914141459513854, 52.744236212682594, -221.1844391602073, 5.133675148752456, 47.577917828835105, 3.0288178084993453, -225.28347907453707, 0.38312951721052513, 0.16253499395493942, 51.490631848028414, 31.54792353994838, -21.253098389408287, 69.57687321209207, -24.73596080226417, 60.15742205397827, 132.5437930956347, 41.16647290624231, 0.0819553411847358, 0.044232813007128, 296.4264581175026, -134.8218180224511, 253.4870286472643, 3.1643352645662555, 107.31000989526585, 102.124277379808, 235.8443186770099, 17.190258835595234, 0.7906968393795485, 0.4159537239461776, 0.9206355006581444, 0.6120536743839902, 0.6799897163538342, 0.537838876264023, 0.755740613928233, 0.9495410751139209, 0.21487196330911673, 0.6539710546737201, 0.5233117563853982], [0.5418122487394277, 0.6923450505622056, 0.13082015282887494, 0.5065331733280455, 0.06256776062066338, 0.004727224333397784, 0.7382087251168254, 0.13658377953768686, 0.15294840333213378, 0.019713093446911856, 0.10019026002038933, 193.0055646193511, 19.48337841520907, 9.803067767816977, -88.71789984100532, 12.491042772015177, 91.51817862209975, 101.35465223734296, 117.88897552700367, 0.5921598194087805, 0.28938815124341977, 27.77123531009834, 130.3748048831422, -6.116325585017952, -24.06527083319344, -93.29869509916753, -42.763330898371905, -29.05062536742952, -13.831815904690897, 0.8626992765707765, 0.5092052615556648, 49.61610848266678, -26.55569249464281, 142.50205435703612, -29.585656680911043, -79.4785662450327, 25.724542575803433, 26.176323029695613, 188.37365005549066, 0.1851648950735839, 0.2926924645111597, -104.89842482935822, 75.75427333724843, -108.87823609059714, -350.70028035134686, 87.65646161734023, -24.24450732539618, 31.429790769198586, -121.45782727131885, 0.8942448066943963, 0.1868675168963243, 130.9194909987457, 20.00386473176537, 40.28042284531083, -100.57665248794731, 126.21416968739786, 230.65783596278234, -180.8022899636249, 251.42697421728954, 0.9733019870012949, 0.8375965567821619, -19.550384436043014, 0.8332637909380455, 67.67703807074012, -205.92946350830073, 19.315671294145858, 37.394518019405766, -11.731287692944258, -211.18420660609934, 0.32665506249349296, 0.08491332651721384, 63.52375433717904, 38.74521535612614, -13.889008490682556, 86.62258135895321, -8.767232224108357, 72.6576756447482, 117.31892905983817, 53.420522986030875, 0.05197055533567885, 0.11459395392152205, 312.69420446796516, -122.51704906035441, 264.1925494307257, 5.414810588539688, 94.81100980317896, 91.36117348721932, 220.6165673866023, 4.357503578957387, 0.6902509898327056, 0.09366835610373148, 0.8181793978055653, 0.6539877347532158, 0.8294809419969077, 0.5198924606802362, 0.3605318640528239, 0.6168978803881298, 0.22767126704027163, 0.31497535739151516, 0.30570322957627183], [0.9504850193584814, 0.7871633518850196, 0.7645821887694557, 0.8972411552677582, 0.25981631418586404, 0.8785479490053942, 0.4920268105139811, 0.5558637153908785, 0.48471225946002816, 0.766646682751336, 0.4280419743758327, 181.9879926481933, 7.182230160547924, -2.7579845701490067, -102.677054045644, -1.6765580579182162, 77.28913736036051, 86.40966926771512, 105.92215480201116, 0.18163260104636858, 0.4489357796116187, 17.11709913381289, 120.45446028738573, 8.63347976802063, -36.301886050845056, -105.7759653202938, -56.155906913724884, -15.185176028287982, -27.44387503932677, 0.4774667399476695, 0.5918912715404211, 41.178439652635625, -13.406108524755714, 128.54803751536605, -18.068448039832543, -89.14103160133061, 16.29849975464794, 14.555743948879007, 180.3106000015943, 0.8101884016051296, 0.6405155071519426, -116.09684464492966, 87.03508186435998, -101.86805071511687, -372.46575185190534, 80.26030698452095, -13.540930471819953, 46.08731402948146, -130.47901928297298, 0.8323032496242038, 0.7294030728829376, 122.5806670493538, 9.356317691879857, 51.80447717476558, -111.59843041152146, 140.35291726146784, 244.22177601807982, -170.4491437487492, 243.08095067414, 0.37772909767998064, 0.06633690572256234, -32.52014621079236, -5.06910506121061, 55.34464225924565, -219.29839392207722, 7.564264702695511, 45.46220180376819, 2.134046380265242, -223.4334289681504, 0.7556302065948537, 0.18079030186260936, 51.49744910967621, 31.16344679264461, -21.61376474030148, 72.29783411399674, -24.487527339257444, 59.777146920629306, 130.28977828047528, 41.67823036804044, 0.7572128637650064, 0.6358330110096854, 299.2775180288744, -132.39965217227547, 254.07017126507282, 3.3576320344774686, 107.00207410956419, 101.11042728238633, 234.2488167389851, 17.53574972636195, 0.8767405648760487, 0.5863807596123741, 0.4752097092606714, 0.18149192241432976, 0.6588949294578093, 0.6276875566997367, 0.09287528717415683, 0.13156544723153218, 0.7770352833549429, 0.6181994973188254, 0.5466302160904364], [0.004990511139434939, 0.6232715650994247, 0.5502878449230366, 0.5997092630737236, 0.8770663344598775, 0.1146965851171664, 0.2459311394492888, 0.14991677381719104, 0.2291609257409688, 0.08515950087860913, 0.6998361160935826, 189.9860093849913, 19.21579185527694, 5.205990925827476, -93.37502224080669, 8.01662330953567, 86.2513419909145, 96.50182463946251, 112.68599922485001, 0.19279998822832523, 0.02964437038264922, 26.184360538100012, 131.7594654187533, 0.19276805704176456, -25.282369862214498, -94.45240645877708, -44.98481858277901, -25.295794742296987, -15.991067141857078, 0.4477007797284812, 0.8996462293095665, 47.28008317617858, -19.90632558158489, 139.46843533463138, -26.50583673307144, -77.6897388669543, 21.079802728729945, 24.728391144291525, 186.82949491984775, 0.651854848340753, 0.4272121202727729, -110.00128656978659, 76.45907445660957, -112.31842523135587, -359.63946111438764, 87.91917363628318, -24.398260184807206, 36.23329227862858, -123.22145605948239, 0.44469357341538107, 0.6492644074215266, 127.47312529865158, 17.39495437889119, 42.412140246854825, -103.32877893598996, 135.09540972958274, 232.85920433944636, -175.80971657639037, 249.46559964229064, 0.5535294795790233, 0.560124707887687, -23.957628803140885, 3.950241381364804, 61.11132547174609, -209.04505979048125, 18.728451960362626, 36.00425791647006, -8.930095497215351, -212.50223039429918, 0.07307961526221829, 0.12871306315361208, 63.07815174319141, 40.986144486757475, -11.011115604751346, 82.7105939125651, -12.278491879221074, 71.19210117514967, 122.28118417209485, 53.15605009974256, 0.8273284156071339, 0.3992405906516311, 306.2330933549771, -122.37648180746686, 260.5038445584823, 4.926806701308141, 98.17572649961917, 91.69669712689293, 220.6904404004545, 7.794313556491855, 0.8827691868139276, 0.07291485597485958, 0.3306177294326712, 0.2483267336814351, 0.9140436261015689, 0.7949536729588366, 0.5917877813920156, 0.15481821015807307, 0.9081212073621753, 0.5884077353173043, 0.02387548532960926], [0.04103214846319503, 0.6217307667310457, 0.024939039649962136, 0.7392022095839837, 0.0524147118042948, 0.7921163038207512, 0.22598253861090323, 0.18439564281229737, 0.9332158208663631, 0.5446738942468725, 0.7345129525048487, 190.6013706627029, 21.034100328547932, 6.115224001323588, -91.77338711326786, 9.79206294925606, 88.76903111025511, 99.52264719816995, 114.69607527971026, 0.7323131070650171, 0.22610749260384744, 26.12124929874214, 133.6908308051064, -2.722816138087509, -22.7259690321469, -92.18217758178179, -42.49025862998953, -26.774387040321713, -13.734773502195429, 0.0018556315394494538, 0.03098691388319641, 47.19655815296935, -21.890142753195974, 141.31456027924398, -28.368997689490183, -76.06984030540464, 22.302169805887825, 26.586026602759823, 188.30803523302345, 0.9249321092231318, 0.07598805098516126, -109.19516287424607, 75.21363250181064, -112.96003107486061, -357.11765243870195, 88.50654762155797, -26.001380977931877, 34.410940226083326, -121.58872182353625, 0.4165253525457038, 0.4396918817168344, 128.4981566743375, 20.05273197505601, 40.45329709496199, -101.90033336016275, 133.85377903503527, 230.66127041855975, -176.91199333603726, 251.0702263619322, 0.771083535883953, 0.9210691301631179, -22.455245560814195, 4.325642806001688, 62.588020174838604, -207.63383225341727, 20.39088094154371, 35.433765328319055, -11.163384603261832, -210.98732645538914, 0.1670867493789412, 0.48204366188842784, 64.62344107799713, 41.42268304326927, -9.58329378032037, 85.07120301930847, -10.434234462565666, 72.17502872655422, 121.39483320317541, 54.9231237965633, 0.5031715554696247, 0.6498753350559963, 308.7008673919051, -121.68713453095218, 261.68600611503723, 4.911879361783375, 97.11791915842731, 90.16850668546697, 218.75170933795263, 5.771230045896561, 0.4363967155775549, 0.8611816439721617, 0.6003577048368451, 0.8765340769178555, 0.20012875907892325, 0.01587760751731848, 0.2421943968221768, 0.9359144128139363, 0.6826743187185589, 0.2577739774676395, 0.06095139688743301], [0.05817395942635095, 0.3718328396228274, 0.059327564175766234, 0.854623209700015, 0.7553973537538099, 0.3418063719409712, 0.8213891836304095, 0.46409696024943603, 0.5170724002249476, 0.062311939553226336, 0.8094250332516382, 172.089411528218, 27.459091450545497, -12.546706212703326, -110.32361880096289, -10.0045918016862, 67.16285423405577, 82.68671610840518, 90.72783364989249, 0.16898280141590016, 0.3951131772433464, 11.612027871529047, 154.82809102381123, 20.742751384879096, -30.823552162829415, -101.73466895880875, -71.75367457511857, -4.325054096480886, -28.253737692723195, 0.9388439843115993, 0.28027630681591, 30.95926295636847, 30.96050413170038, 124.2980902566945, -1.7463380937086683, -74.86686644325331, -10.959848183726814, 19.91637239244331, 173.0522154732126, 0.2008906051098608, 0.36483001299520135, -141.54977811950116, 83.91273144646541, -116.51899201946551, -399.3225735615904, 86.54573724212095, -21.348058997509682, 57.26999812313442, -133.12125120169577, 0.29774827154082373, 0.9859010639133012, 110.39686302119989, 6.2968044804843455, 57.35891549452058, -106.34947310476419, 185.82078136576646, 233.58439541765782, -148.94373452342083, 235.00033719468985, 0.9423853118142741, 0.8184280817989221, -42.12254662611406, 7.927895640646859, 29.5796158466519, -230.46547821187727, 7.011263111438368, 45.7097925369972, 4.6120893192967545, -220.70804963108202, 0.6426215366491456, 0.966797235263863, 59.194546551949706, 45.72926485848861, -6.939083133426468, 57.57867834459573, -25.089239832354274, 63.95807134870077, 148.2538310740373, 51.36656045087894, 0.5143542759092731, 0.849863725330162, 275.6319411732192, -135.54837126558158, 238.05159282849488, 7.248054584680958, 109.81572215889277, 93.42968728820894, 220.28899543075022, 18.171349462949433, 0.1748787743856075, 0.7638390524001824, 0.5591080189691918, 0.7124938338574378, 0.46340258448399696, 0.8182068783232823, 0.2624873169210782, 0.5437579081356523, 0.05200337930938992, 0.2617882778963797, 0.5094873274803444], [0.3008851069796745, 0.4435828056537906, 0.1492761388225733, 0.9329930180825295, 0.5590881538956359, 0.2490688470505681, 0.8524542264631648, 0.8763532877312347, 0.14520027124718105, 0.2906526898026076, 0.12166760254228359, 182.3082471629812, 5.942769025076218, -3.560070938827815, -103.32582911310638, -2.8973538917680175, 76.16788530127853, 84.81324880902044, 104.01092293430708, 0.6309192498719746, 0.30767239202948915, 17.544525329958265, 119.9359829015619, 10.970112130567147, -38.69850872505168, -107.79969160015048, -59.01486520471677, -14.419249381486138, -30.372305096335626, 0.8680609872015239, 0.3307887362599361, 41.671879239138214, -10.96994292645642, 127.81703804634799, -16.312225515568937, -89.41056660173, 15.747434154320361, 13.136080186708867, 178.49287372047, 0.9990267318447915, 0.4450451445022766, -116.35886523926963, 88.4282869244475, -101.82329385298117, -376.65245816249245, 79.27658338495138, -12.560131028224443, 47.464652360820125, -131.34289125709296, 0.437534090593818, 0.4376315863843515, 122.73636984276565, 5.614100602928108, 54.17889559405242, -111.82624516222188, 143.03218627273984, 246.29987208907855, -168.6727741519206, 241.5073658947776, 0.3437544548776561, 0.5013954636335763, -33.536422995971506, -3.8955494658176377, 53.32105078422396, -220.88883369364862, 5.0479011298850915, 47.32008486164589, 3.8480044963995765, -225.03958562494913, 0.02336220789761756, 0.27846851698087993, 50.961587347419346, 31.76720591185178, -22.37156068011504, 68.77502478020462, -25.017772628858314, 60.217043341066244, 131.63655873205175, 41.080316858654015, 0.6964237079694535, 0.7121436029524927, 296.5886387236487, -134.32895103097843, 252.92123021147611, 3.549737790323028, 107.22639712053419, 102.33976551056611, 235.56679787145802, 17.76291275557444, 0.5620990519201826, 0.9379127870153059, 0.5378905383203355, 0.30549095597614506, 0.6200254235153468, 0.338431032275164, 0.7538701087676187, 0.6625690482098456, 0.322095212990391, 0.8443135846285892, 0.24844145642975302], [0.0865893083732917, 0.5274233062939171, 0.2699280779081962, 0.34921496484118253, 0.5185927928221515, 0.6801919010689877, 0.8729104394432327, 0.9171953788649322, 0.21395781759232513, 0.7756400996547338, 0.6619114096931548, 186.12531940420092, 11.124184623068635, 1.0531119584097197, -100.03811321900525, 2.4454186862625247, 81.06417375688413, 90.89976129963141, 105.67229350703272, 0.28965251813426807, 0.39025268043918326, 21.075959297095032, 126.37444237980407, 9.577527444228368, -34.40547171218244, -103.67207265731153, -57.63832960092637, -18.99429010669116, -28.095654932172767, 0.14397174169814342, 0.2602833952023327, 45.64708819095599, -11.147367547373563, 134.525361744116, -18.48020579622503, -84.89534097453779, 15.608343027478899, 14.055219626309267, 179.86981867818992, 0.13816823168553005, 0.6794025317543619, -113.87966266513399, 84.88402650539042, -108.1855927186521, -376.2395774209437, 79.04497598256437, -19.253137039461667, 44.29465194991439, -128.49374008999106, 0.34688707853332723, 0.40480961380851843, 125.65316601037243, 7.063454147933026, 53.91533237967107, -106.47462250135676, 147.2497120767299, 244.5614839343903, -168.39105302577724, 242.6152011520664, 0.08622138481119568, 0.7730020729771443, -30.16652851947325, 0.8438560691696527, 53.12858287031805, -217.35562669739625, 7.876695800747983, 45.64088667998861, -2.1252285105700985, -221.65660152121544, 0.6515689350724989, 0.6209443060788731, 56.239329670643755, 36.79742980405436, -15.480649211405392, 72.16093693249962, -18.390000792677093, 65.41225209140309, 131.85857288863232, 45.45327455809975, 0.8580360244149318, 0.3069138551577357, 296.6710579466143, -133.6090801448454, 254.48249153913775, 4.23151856695594, 102.64955376236787, 98.37182032490307, 230.4614309525381, 12.67824379559966, 0.11425310972282265, 0.09042456734475912, 0.9718150085513274, 0.14598749092158503, 0.15111491587225523, 0.158279603355028, 0.8209186458592979, 0.4301387483783031, 0.047754107705388904, 0.7157109892564437, 0.49013536159075843], [0.8212630453806454, 0.12471558613921552, 0.2965171289773988, 0.28907097189164543, 0.4787017548143896, 0.5046095332588041, 0.28981345777674306, 0.16804263285529575, 0.296970252818469, 0.6715671124067192, 0.25109593601783275, 172.15991335874688, 22.672486361131504, -13.092478246045802, -111.74376366995614, -11.061558559240364, 65.9887871799115, 79.94208168430745, 92.14259260100539, 0.44193447288507914, 0.6961250931581283, 11.435808515781812, 145.86020259750111, 21.740669711661702, -31.32292450418487, -102.80162554416333, -64.78951938243317, -5.938634561364743, -26.696215839390703, 0.28504150073394796, 0.0021675578649894556, 30.952719199864347, 21.80627351392231, 122.76172159414365, -3.142695511675195, -78.22920435983002, -5.108850841842833, 19.992781726172254, 175.67101540093338, 0.8618929602301447, 0.8543247500245059, -139.0961199774392, 84.82947647898507, -114.40852235954833, -394.16881696678763, 88.01934527577619, -19.63757848700716, 57.018906018110684, -133.23015243165722, 0.4350021978156625, 0.20455692959930427, 110.30246608861407, 8.26183900182298, 52.84925522847657, -111.49546898483514, 175.49424329157145, 237.68859438571596, -153.2521709658634, 238.132072201196, 0.12627903165039422, 0.7170078563138431, -42.472930549952665, 5.941343775873715, 33.71517199643559, -231.10590502275164, 9.336367402779185, 43.083518273105184, 7.763149554016695, -221.88411661951196, 0.76760847746625, 0.4358715137759622, 56.034634285059866, 41.83798748367622, -10.490067310117922, 61.277021744889396, -29.268748459319195, 59.25212615312409, 145.90574475001776, 49.839841891021365, 0.6129848382562609, 0.470461939087367, 280.28580311901413, -133.26754686629934, 239.6613432813882, 5.449266580129648, 112.92240742056565, 95.1649327856529, 223.51989757157176, 21.69928589494367, 0.3013077630489661, 0.1476559869740166, 0.9769912774637747, 0.999739647418136, 0.8337574706925297, 0.5330686799601518, 0.6022652619304686, 0.170043721221943, 0.3233031585866719, 0.6201764818529647, 0.8773023289073633], [0.12815420427634516, 0.2871481035639849, 0.18315760868084385, 0.2192996450170842, 0.37743389141165384, 0.5776342177667753, 0.7316119895423816, 0.4768953264428394, 0.7583466457138706, 0.5554704749013045, 0.07609338842002511, 189.90652224213895, 19.5747781340891, 5.603093544874693, -92.5069799282163, 8.047859690743602, 86.42280857294638, 96.74892660510693, 113.65640060038356, 0.2935214000201053, 0.9655533757801198, 25.86782633868254, 131.5138064153338, -1.3842188106133508, -24.367492280385303, -93.56050369803901, -43.13507455155345, -26.007153049790574, -14.083388406855034, 0.8059291922883173, 0.4439664967265431, 46.70175769326942, -21.593071787109945, 138.7978730731922, -26.475075596423622, -77.69652976810973, 21.788209872006593, 26.813082482797178, 187.53466119383825, 0.5173956761757973, 0.4927105860660662, -108.95141372647807, 74.95506129740461, -111.54807975218056, -355.35021894214987, 89.56448875433996, -24.32772083543942, 34.936766118321785, -122.37786591682844, 0.3558748290855419, 0.5178560868174918, 126.90905973620687, 19.09725157701787, 40.293100942971364, -103.25707520047213, 131.58113437521126, 230.58559533885102, -176.75222747279432, 250.02262260647888, 0.8150981097780037, 0.8443672806405955, -23.18434511985725, 3.227455324595205, 62.999689031838194, -208.19742433003682, 20.051293880512464, 35.17234802033202, -8.730941462634219, -211.2501714287268, 0.9878907044369252, 0.27236753913528267, 62.90799951276591, 40.68699267988653, -11.874961766565855, 83.96606790126616, -12.298359091974651, 70.78589322700154, 120.37417900542737, 54.09685180419001, 0.14035381970670724, 0.7492590027972805, 308.0505405881552, -121.1376557049358, 260.19159417903114, 5.054667079279537, 97.90103378950549, 91.18364660189044, 219.12713510464093, 7.655123775314404, 0.6253219903889451, 0.9059985243618257, 0.8753177275926735, 0.7635041873608869, 0.2599430789174684, 0.4487845823508947, 0.4896187313121275, 0.847859615548089, 0.8499043162850782, 0.21219626196064512, 0.27310839520827834], [0.05338743503432597, 0.23166068864985656, 0.012365296936960202, 0.13030151819672398, 0.4536083631039045, 0.840703270040973, 0.5353371495968362, 0.3570804924785048, 0.21963397235091486, 0.5770710518686396, 0.8636051481146519, 183.70889999489611, 9.104097017763722, -1.055949867749918, -101.66900368683083, -0.06991061333575709, 78.77191392746496, 87.87244431465204, 105.67086895375498, 0.9503825695607645, 0.647415048529308, 19.121268073369997, 122.86041620418912, 9.06217282776454, -35.709050212037525, -104.80644689053848, -56.55867455172876, -16.995114903737765, -27.58936729734708, 0.032527011034237385, 0.32729970427199384, 43.32173992633156, -12.512910846961631, 131.15384746153077, -18.357779516087426, -87.34076703037874, 16.187996322761226, 14.521849985935027, 180.3404024686949, 0.6002932843117305, 0.9727010931506253, -114.94591832281506, 85.88663736738232, -104.54510553368577, -373.511749676945, 79.88326387346622, -16.040064974038756, 45.2930253985937, -129.7385556004309, 0.5472425113199104, 0.1937274578447904, 123.76341968968714, 8.287240776418109, 52.609120482954225, -109.52496829264389, 142.67541511492553, 244.4677039543628, -169.63067131553225, 242.77516185026855, 0.149955121433912, 0.6851096238805253, -31.55195496870764, -2.525620603016703, 54.541828361904884, -218.42065115290896, 7.807147632202181, 45.13176737962258, 0.39694279945947153, -222.68547024491198, 0.03318070522036809, 0.5633206014081669, 53.531786059080446, 33.615787418097305, -19.265256535430684, 72.26760486634493, -21.89069617112535, 62.25643605960638, 130.67878457202903, 43.29571941841815, 0.8716140521419465, 0.7326712697879924, 298.03741784389064, -132.7272011715098, 254.01396433433823, 3.605417844645662, 105.20191465482777, 100.27528245281647, 232.41133330378688, 15.474488910221025, 0.7839464607352671, 0.8206053257826235, 0.06407960348839026, 0.10235603624472633, 0.7774408775569485, 0.5584221051955904, 0.6565682830095744, 0.028514323122773688, 0.47297497453095405, 0.16429277651234786, 0.8186095877375051], [0.40275521924253344, 0.5698036666709025, 0.6477342648236581, 0.8364898126716559, 0.6252491431893513, 0.4174341004012413, 0.48504132709885794, 0.6777128716091722, 0.3736395985783977, 0.2632269963935203, 0.22104660437365864, 192.4223147400025, 20.13191801179856, 6.928977803893362, -91.77414304572842, 9.316976101857307, 88.08099724894797, 98.63727167005081, 112.49491934733, 0.8184584674914125, 0.7789055141889486, 27.903074657334148, 134.47647616480546, 0.5123990661458873, -25.23432832141818, -94.00687432946062, -45.9718360286682, -27.562448320859072, -16.789205253348733, 0.03517697448700652, 0.6721558217953941, 49.77804566383911, -19.07800421956662, 141.91316677093116, -26.125614002955253, -75.7208476319312, 21.325005652717188, 24.553787707936735, 186.42860322199397, 0.24518288820433531, 0.5472827625121879, -108.74591530775425, 75.25407044378429, -115.39677774034371, -361.3385437711837, 87.4491408423278, -26.204528970801363, 35.28669659398793, -122.43251857985632, 0.37524267897453323, 0.9842741111900061, 129.21320623489527, 15.701481084128252, 43.273608881495136, -101.19515298489394, 137.28756255317242, 233.54525188897802, -175.32858407604735, 248.99758826763355, 0.5191969683086591, 0.9353359716333742, -22.71601596109926, 6.775984415728355, 60.737452675155794, -208.1560811013973, 18.33273697114535, 36.660577250893716, -10.516415184242913, -211.87027639156094, 0.0922845504034353, 0.37301601008365237, 64.92697338797856, 43.688978141678234, -8.867160479420967, 82.29800999340482, -9.51999756363297, 73.57152479305009, 122.65544244567093, 54.53322174311665, 0.6744130239480413, 0.23836858020953888, 305.6943873207827, -123.3980379216396, 260.4167511747117, 5.107584558983265, 96.37942526112387, 90.52782891628313, 219.74581815222436, 5.315436508176306, 0.5442698325267258, 0.5112384095524549, 0.23410112867356714, 0.959932319731225, 0.16174430732052414, 0.17791648468089316, 0.7550957289754177, 0.7977384494069357, 0.5090999699618298, 0.9318755915832556, 0.8014518290385205], [0.8442256017238788, 0.6426808393842092, 0.5806890772723847, 0.7198549515808541, 0.6373873884592998, 0.10886796027155576, 0.30934718345596823, 0.4445962747891776, 0.5257565695953895, 0.22675865625308256, 0.2631402037764745, 183.47230834817836, 7.897086731854199, -1.8528041727355467, -102.16312542977141, -0.9690972263553003, 77.77625393052864, 87.41552160704762, 104.88539613545669, 0.6154135385835736, 0.3598435504499645, 18.483266957815022, 122.22863678509485, 10.0541026328393, -36.82847644414263, -106.12018505855939, -57.81362755609635, -16.26026079039561, -29.08346735831794, 0.46394017333759996, 0.38743376211713487, 42.865648299448445, -11.505348032744584, 130.35032642755294, -17.177586834923236, -87.97344714217911, 15.817346851300568, 13.38241340428216, 179.66877305499185, 0.7398052860209223, 0.32345838972674046, -115.86069552335033, 86.87015411660583, -104.05489257735466, -375.848928307188, 79.32849412417262, -15.185703629112147, 46.275984513834445, -130.53885621898417, 0.9542272670826758, 0.9525331783116077, 123.77862299983579, 6.876515503461501, 53.789454093383306, -110.14930023273355, 144.01465938730811, 245.86506817926815, -168.8402357425577, 242.28846255356348, 0.8637165530226654, 0.36042824589967704, -32.082139127999376, -2.561224465060655, 53.6258837868647, -219.65455864274298, 6.353625247750553, 46.5425855708865, 1.6287032367401817, -223.9429942673391, 0.7331286863243619, 0.9291792169314164, 52.58736365630342, 33.23962901255395, -19.80770683440332, 70.64816263029796, -22.68941796432409, 61.54906755661763, 131.73043030040338, 42.625930186996335, 0.04197526556457998, 0.46909312647884616, 297.2408691923641, -134.182025986046, 253.65716008495573, 3.629747404446816, 105.87263034435328, 100.71991740199446, 234.0149795953945, 16.04931887160499, 0.36731312994875187, 0.4323156482027347, 0.6229355597689179, 0.9869800940437844, 0.6442744198747533, 0.38924543481654794, 0.6916853782017803, 0.4029502576320917, 0.7614310009256263, 0.302222309095847, 0.8523311243341509], [0.47605003275539937, 0.11147238007534954, 0.3826978371394314, 0.7649118866104166, 0.42868649487052934, 0.7334163472387867, 0.5823746304357682, 0.5083049691164564, 0.22494848295475578, 0.49661415991715185, 0.40858486413672446, 183.9620279260747, 9.810101373280533, -1.0071892085513374, -100.6906198668423, 0.6616235254374815, 79.30945426805954, 89.01830287153432, 107.19516830930802, 0.5243032694034614, 0.03318433076912164, 19.23361985760118, 123.36793756452423, 7.185464268925035, -34.17671870516557, -103.4409891582184, -54.417832699946445, -17.25402758974853, -25.54708344494995, 0.7155979183939699, 0.9205771655189258, 43.026814929831396, -14.06133687165251, 131.62670482296681, -19.85812573470501, -86.3513494140807, 16.70184368584359, 15.89349184313994, 181.30643513371407, 0.47371560929630707, 0.6280088595973096, -115.0477216013583, 85.19230987116318, -104.77075230526022, -370.6815264213355, 80.84521175400477, -16.536144707425063, 44.36694604859382, -129.14652499643552, 0.3130180550818079, 0.2308200179216432, 123.992768186338, 10.231426644404157, 50.634637958240056, -109.52387768320486, 140.56149405231199, 242.1469218765964, -170.9811491640421, 243.69974173469808, 0.11070268433825514, 0.7293661028953563, -30.843463713929555, -2.655845755952007, 55.89949159033524, -217.08682362933507, 9.424602586961642, 43.79594851153536, -0.8672271493026649, -221.41202601361854, 0.40962606904501375, 0.703159857868334, 54.322961940353494, 33.737822196803556, -18.843123695444753, 74.06900014712785, -21.376236670497867, 62.590281609321394, 129.14177207357608, 43.88285737167528, 0.06159124677398797, 0.26749747083511344, 299.8379912013447, -130.92372569567814, 254.93648368374187, 3.652857924727833, 104.820778580779, 99.27317757889236, 231.48884518763356, 15.083818416974411, 0.7960782818125264, 0.8563024971568073, 0.8412419122581715, 0.3103031770779754, 0.05515577463886556, 0.29720263696766, 0.8200763948992563, 0.3580973560525661, 0.40892188626975756, 0.22252696739654665, 0.30661962012654886], [0.5317925756185764, 0.9010331332198486, 0.45102029804680965, 0.7241700358888171, 0.2758401936729771, 0.045058818929717415, 0.9139945724232261, 0.45494464311919736, 0.27623436819528724, 0.6097898442264663, 0.5414514452005804, 177.40014343571738, 13.277164394990884, -8.797263384383673, -107.99009417306183, -6.579802385192904, 70.61057750545511, 82.95467264726825, 96.96360119417481, 0.42430133656367386, 0.7566651089161806, 15.249339312784299, 130.73734928408362, 19.339753325931156, -34.94826470761096, -105.4205379357601, -64.58556698235081, -10.780627340258743, -29.66000758152197, 0.8818605762119984, 0.9094851464841248, 38.052527284666006, 3.6618221297754503, 127.16567449774264, -7.696210592930342, -83.8933237895229, 2.99437908002531, 15.181194067052553, 176.64008549453547, 0.8218632243111623, 0.3956001283991508, -126.58788626269943, 86.355023973452, -110.91977873488915, -390.66974425905715, 83.33308304248553, -18.858734338767267, 53.70218901294697, -132.24111993178994, 0.7491387774843997, 0.8548412710213615, 117.63971516054538, 6.2171923636309865, 54.68604500105349, -110.43978666395878, 165.09374497695626, 244.30054063740658, -158.72919312398471, 238.89743859907495, 0.5480638722835414, 0.8946808856636713, -38.09172374538968, 2.637083937867522, 41.37455808766708, -228.20032366697637, 6.542773466236717, 45.62329747733464, 5.916043534116839, -224.09126896310195, 0.8695505640490214, 0.43120877394924695, 54.47782427725812, 37.58171894201097, -14.138422263460178, 64.04774824349454, -27.531119632418125, 59.05167221509332, 141.6069420571036, 45.43179198574662, 0.5591785277242439, 0.8547614266643124, 286.57830511900215, -135.71353384159696, 245.01981120737193, 4.277234104975045, 109.56531292136454, 97.46253360829854, 229.1447722416859, 19.41582028344174, 0.36396077532769877, 0.9503468511166632, 0.43070704999025244, 0.874633881792354, 0.38089256783359415, 0.10027441232743972, 0.9677180661718348, 0.23804205691081814, 0.2946964678763824, 0.9367108762708168, 0.817382510708063], [0.5557910632014487, 0.12284229405848957, 0.5580850036500943, 0.11872409447931975, 0.9907680545345706, 0.14683051413907333, 0.478445007329661, 0.3886146978017414, 0.4018861373172813, 0.9980253207623482, 0.2653914371779281, 190.9303911487187, 18.756423076903708, 6.744332921681517, -91.20141390905648, 8.802246173299716, 86.98356034465877, 96.41509696026326, 113.98117582946834, 0.3780276922441643, 0.6112422760273813, 26.22423201450614, 129.9303102584254, -2.3351314952171, -25.146055442913752, -93.67341688362922, -43.16662383156558, -26.27670431692101, -14.3914954575552, 0.6440646005768221, 0.3524557374464313, 46.84232826808241, -23.097512694515686, 138.5037887941128, -26.785609793662488, -78.22660590759534, 22.931464452533994, 27.08848418707467, 187.3509027465684, 0.9028969575289042, 0.5028365192900179, -106.28763266980133, 75.11149259674485, -109.97228605018935, -352.52980862337466, 89.48079954352995, -23.28828504952082, 33.703009606007946, -122.1269458443513, 0.8670982075422807, 0.21452851788764316, 126.576786989313, 18.272429031766034, 40.17152571587979, -102.79950765471288, 128.26452228775233, 229.65396259657743, -177.52629690674843, 249.4169341581734, 0.6167901540042481, 0.1679174495253658, -22.362521505505956, 2.5599227004928466, 64.43607628009714, -207.34524863576507, 19.54586543408928, 35.53212131338292, -8.527514394197224, -210.41800571964467, 0.7179582022925197, 0.2615066187503269, 62.240647506898355, 40.354193493812, -13.948208406031592, 83.3490360419563, -11.698488700557792, 71.24260998366545, 118.68636021568739, 53.97678117890033, 0.1403564239810765, 0.7862406198368488, 308.40347052946635, -120.84872939272218, 260.61771518542963, 5.121247755216061, 96.51829350731447, 91.31415355687285, 219.26835583121076, 7.452440836041525, 0.8377693695959686, 0.45332650376560324, 0.33545295255908336, 0.33880597838445514, 0.9940483930492905, 0.15886222409811968, 0.42953147254059665, 0.6880067011604437, 0.8311203732903278, 0.486923275174834, 0.8085567946083564], [0.45322774503129637, 0.21867565202112293, 0.07519520602370167, 0.4657112513736057, 0.7332385475144001, 0.6934420046608395, 0.8300457407521081, 0.8559920067013659, 0.25255069046944467, 0.5782545943063454, 0.7277889530530209, 191.1542916348782, 20.236747458695227, 7.350386396545431, -91.03173950894009, 9.997986011503436, 88.97510473823374, 98.8445451032636, 115.24927147114445, 0.8800952709779942, 0.0690556577327065, 26.46840706877243, 132.16798586985215, -3.264895742677719, -23.73481509690956, -92.41605098498313, -42.58231674102738, -27.72564245354642, -13.466911669046645, 0.6569101667738857, 0.16017019318961923, 47.41564748785362, -23.340147618044696, 140.60578725250315, -27.570051325143098, -77.19972824313678, 22.810834961277514, 26.885406401659296, 188.3111083764701, 0.2454527744920293, 0.24147041742154884, -107.3668573581338, 74.78876835931382, -111.64232357878329, -353.74521509264997, 88.8282107320881, -24.939466723399732, 33.74142069278798, -121.71446094771765, 0.5503851214978557, 0.5999913264815838, 128.3358986144594, 19.891906242934514, 40.03622972776845, -101.6581617250351, 130.33548812828622, 230.24328798211369, -178.04951884377414, 250.75302443137252, 0.7261114676548706, 0.550001006865101, -21.647173824025163, 3.087917982537793, 64.49985070348713, -207.13701889000083, 20.187773357580216, 35.6604951236267, -10.555923821364676, -210.42248085207794, 0.7143705609724635, 0.20714637296800598, 63.613151709994945, 40.50430709708432, -11.791910771021243, 85.48008865721579, -10.409338104190915, 71.83776429369325, 119.70420341455564, 54.377148937046044, 0.023730982068433937, 0.6914204416256292, 309.6726467013536, -121.48604785916991, 261.23857662775765, 5.019295740304997, 96.50191332771935, 90.30269130350236, 219.10717566908778, 6.113313299998728, 0.8492667523333897, 0.1964358943650959, 0.6264113048360822, 0.8024513197725307, 0.3115415662567995, 0.7627680337083075, 0.2924140800676519, 0.8879781089009049, 0.20671374972307288, 0.5828799413620057, 0.48790094412064444], [0.6718654894193997, 0.37675711192980743, 0.39122438041633634, 0.3630948843801748, 0.5228470035197124, 0.8741941253487335, 0.7075467586503602, 0.797166862747303, 0.5373587682125321, 0.3162372625617923, 0.34698626843088687, 182.52657741607175, 6.856133964801906, -3.783394304943949, -104.33013024588895, -3.5455682821418324, 75.1369583660918, 84.26785070196995, 101.6017371758277, 0.2151081719025194, 0.6144020840534891, 18.687079108041782, 122.63379081188893, 14.253317412853207, -39.39418241961736, -108.63627893575645, -63.905766076050114, -14.095890703338823, -32.877025370569754, 0.5009349051077091, 0.8174535359704469, 42.721968112658445, -6.112137666699442, 128.8187755587619, -13.194859583972596, -88.51349496961181, 11.755350869614496, 12.442955387276735, 176.86689373898332, 0.11105201335750459, 0.2705678413449829, -117.98981495648792, 88.83419314341816, -104.46217775364347, -383.43671346576133, 79.05009988188128, -14.017770146795684, 49.667781589258034, -132.38927913890063, 0.6038316237902431, 0.3867206937540085, 122.63540786947, 3.493121940282102, 56.643150857747806, -110.27445126452865, 151.92511255698795, 247.63233162088713, -165.54675638415486, 239.44373938172689, 0.8185210692398398, 0.5782331615303774, -34.502405609142336, -1.1598401667362523, 49.36358476785908, -223.55684500052314, 3.0511923356944095, 48.41938184579888, 4.131028209693399, -226.12267346526286, 0.7468033968039424, 0.9078254238622658, 52.03753916374097, 33.41117232225437, -20.360156877699968, 65.85388873742446, -25.22453820266613, 61.04879453485185, 134.5451010839984, 41.32454296534263, 0.37838151628286754, 0.7067527547957139, 292.36954540967105, -136.8601713363188, 250.70692218242215, 3.6060954297449874, 107.0142008454789, 101.37008669555577, 234.82051551108847, 17.066678342341696, 0.7147370458244776, 0.5288042987671092, 0.4667080923331183, 0.9188164724490211, 0.34111691138155775, 0.539401800836711, 0.47489518055719815, 0.51530027084321, 0.4296397698288502, 0.6004657761558727, 0.6057435602710685], [0.20232233290488133, 0.23620982580062755, 0.24974675104931554, 0.3987654443897658, 0.0003533154884616252, 0.6331733829390436, 0.004072656393776852, 0.6624429721752056, 0.749500787875274, 0.07734053807395214, 0.7921988768862442, 183.2278067719072, 9.269066234048438, -2.205574498395515, -103.13471066690788, -0.7653121585736471, 77.78395161624945, 88.16753394534052, 102.29283198435778, 0.02587523086760357, 0.2749195090919736, 18.60450480595349, 125.63930927968923, 14.1722451400364, -37.26795979982775, -106.88045986391073, -63.200666720638914, -15.90307595773243, -31.729417387015484, 0.3236338674160629, 0.7120700256608935, 43.552869034177306, -5.445635604322674, 131.73896448732077, -13.811991007426188, -87.3153915742055, 11.33442668395365, 11.284614521575737, 177.15469013049403, 0.41976192832083503, 0.7866338270549207, -117.7184673275986, 87.61443747299529, -107.43815759950203, -384.5638034204233, 77.9666355021371, -17.866491537233838, 48.327221618005865, -131.17272969943937, 0.1866991546192479, 0.45694192911319675, 124.16940690627227, 4.11806285857564, 57.02129134196194, -107.64083982758073, 154.39376163031295, 247.76478569294227, -164.38030857421327, 239.88786545780755, 0.7282894771027663, 0.895883175529722, -32.89903453730478, -0.16600595899438642, 48.756298834116585, -222.5047642670691, 4.380499297153897, 48.64763258400006, 1.6165267155964185, -224.7286481942013, 0.8622935960584714, 0.16279461594352562, 54.072908078675695, 35.41641936343725, -16.76520541266312, 67.36205898369585, -22.041077701033416, 62.16688387725765, 136.34114805801153, 43.30164114866106, 0.12645541654750958, 0.5945317313694202, 292.633638367494, -137.43110932492098, 251.03997190610963, 4.082093900070212, 105.40245641966513, 99.915047699365, 233.14301881054865, 15.017841880247214, 0.30398255663138884, 0.188015520969408, 0.4756615104325378, 0.05475614259867878, 0.7103842169026944, 0.48845857994977937, 0.3455005218051538, 0.3955059506985892, 0.05201368094953618, 0.04989577470244133, 0.13429472291198707], [0.9098742543357866, 0.08958663916160015, 0.5847786290741311, 0.6825032949571547, 0.6674876758183319, 0.7793860618947658, 0.42643173580621585, 0.3452261775403237, 0.512188356411232, 0.4937232623136978, 0.5333783914891332, 175.05933382112318, 15.88781689206682, -10.921097900808295, -109.82419072322524, -9.075367655791148, 67.84054728820709, 80.40098478155095, 94.69183306918565, 0.37557083573598293, 0.19331212289733768, 13.294560035385922, 134.25102565640245, 20.5663046679792, -33.48705389962325, -103.7094639295864, -64.09454110261305, -8.593982913624318, -28.288184739699382, 0.8169297267885632, 0.3136564610139084, 34.6063929680202, 8.595031272635524, 124.44590952723433, -5.812274597415506, -81.3979679073669, -0.4740040492051889, 18.004388654876053, 176.72965095454325, 0.9989059064198138, 0.6967992422212967, -130.1388257379079, 85.41900106173854, -111.84258087369784, -391.521583066562, 85.69989673733178, -18.581205271772397, 55.32450103821324, -132.20267335781793, 0.46250484555860605, 0.5807001449323743, 113.99300164732868, 7.30078437020372, 53.512098796426905, -111.4823042509446, 168.84407468100747, 240.93464306389066, -156.36805582426067, 238.73143866596257, 0.44325837601261286, 0.7677602743519754, -40.460436261319416, 4.102882129066996, 38.375778484603366, -229.5144978721976, 7.7511843865015875, 43.98291789549999, 7.338776663578746, -222.74262696567325, 0.9374138765091898, 0.624898664000651, 54.60680270797226, 39.359988844285766, -13.249749636517329, 62.45804951921737, -28.89370503546633, 58.89274627004204, 142.93465296550494, 47.46446543380412, 0.32865591362719926, 0.4505046248977398, 283.35287136689163, -133.79237420291818, 242.27091416421456, 4.5343014746247405, 110.96369350263495, 96.3535041400903, 226.4241778801787, 20.872300345287833, 0.5674749853801517, 0.7245952648233042, 0.008414941395918918, 0.9895460694209766, 0.9693866695130187, 0.8957310514354949, 0.2294163059997778, 0.9308742216235609, 0.2855532647719402, 0.36056932185632395, 0.5810516927032829], [0.7653475671325956, 